138 225
我 0.0013279625 -0.0004669643 0.0020858669 -0.0016648205 -0.00235201 -0.00017951104 0.001887535 -0.0024733094 -0.00085924304 0.0011934913 0.0018661758 0.00079808384 -0.0012357142 -0.0005778085 1.700989e-05 0.0018761903 -0.0013136845 -0.0014781142 0.001936963 -0.0013050184 -0.0005227637 0.001045898 -0.0014421933 -0.0003832899 -0.0013598417 -0.001723641 0.002087592 -0.0018861257 -0.0016666367 -0.00060644245 0.0019277758 -0.0019920846 0.001746527 0.0019384891 -0.0025412093 0.0013016338 -0.00031628888 -0.0018978692 -0.0017244173 -0.0021102533 -0.0003659112 0.0005902874 0.0003472149 0.0013305387 -0.00051900116 0.0014004594 -0.0014547344 0.00023245142 -0.0009167036 0.0013523694 0.0015812885 -2.7483451e-05 -0.0021798885 3.3890585e-05 -0.0015431446 -0.00019542231 -0.0012583126 -0.0022523869 0.0022768397 0.0018486428 0.00012497591 0.0012915179 0.0019919085 -0.0012067202 0.0004204202 -0.0012817533 -0.0012149989 -0.0015117559 -0.0015953634 0.0016786142 -0.0019296921 0.0016437353 -0.0014817759 0.00078461785 -0.001698432 -0.0014714268 -0.001138214 0.0017807987 0.0017226958 0.0018332443 0.0014897865 0.0006589253 -0.00046448907 -0.0008547061 -4.0317184e-07 -0.0019577856 -0.0010284177 0.0017261863 0.0016442504 0.0003359072 -0.0018729183 -0.00041253996 0.00028911897 -0.0006751777 0.0010755769 -0.0018931209 0.0018154186 -0.00072836323 -0.0018105078 -0.0006965093 0.0021649923 0.00069976255 -0.000701557 -0.00020903531 0.0009823838 -0.0017064317 0.0016714084 0.00032574908 0.00021729346 -0.0020165201 0.0009123019 0.0008704522 -0.0015660948 0.0011223863 -0.00094343955 -0.00012224707 0.0017872393 0.00024240497 -0.0018349215 -0.0009241523 -0.0021395716 0.0005138058 0.00025824283 -0.00021146676 -0.0008796583 -0.0009870471 -0.00041475167 0.00052352616 -0.0015054893 0.0008194191 -0.00033967049 0.00043898378 -0.0017403036 0.0021442175 -0.00023998544 -0.0013614427 -4.0629922e-05 -0.00059378415 0.0009890301 0.0017376033 0.0006086612 0.0013884533 0.0021915955 0.0014399226 -0.0018189731 0.0012983885 -0.00097466656 0.00196037 -0.0005306003 0.0007378596 0.00042046624 0.0012678358 0.0005710251 0.0018761314 -0.0005376223 -0.0018280904 -0.0011878106 0.0014362023 -0.0009945248 0.0018126984 -0.0012410863 0.0006999162 -0.0006357428 -0.0011724993 0.0006355421 -0.0002168926 -0.0020004704 0.0018850331 -0.0016065758 -0.0021593668 0.0020804966 0.00022961338 -0.001352541 0.00044825955 0.000918908 0.0021066424 0.0007126285 -0.00028681505 -0.0011530428 0.00017559 0.0011217982 0.0019535527 -0.0013260433 -0.00055663165 -0.0022085619 0.0016193658 -0.0019208867 -0.00024070642 -0.0008582037 -0.0004593091 -0.0010187975 0.0013446248 0.0011623512 0.0007103547 -0.001304596 0.00033176568 0.0010730668 -0.0006515613 0.0021873864 -0.0023204056 0.0019083986 0.0009563942 0.00039569708 -8.182593e-05 -0.0014751711 0.00013244081 8.062826e-05 0.0010873195 0.00032895379 -0.0020224596 0.00066389085 0.0011455967 -0.0020726814 0.0019597865 -0.00082237256 -0.0014647399 0.0018675859 -0.0020005752 -0.0019299173 -0.0007034078 -0.0013180757 -0.0018350263 0.0023187525 -0.00020841502 0.0019480898
的 0.00015824001 -0.0023880345 -0.00090781425 -0.0013335792 -0.0006987636 -0.0011000539 0.00058552186 -0.0011030658 0.0017234457 -0.0018038461 -0.0019730236 0.0014477264 -0.0016717286 7.549843e-05 -0.0015279894 0.001042313 0.0013821742 0.0012337553 0.0020195968 0.0022465936 -0.0018400389 -0.00068558974 0.0005935406 0.0020854208 0.0020357228 -0.00071395154 -0.00057649444 -4.690739e-05 0.000903942 0.0015500265 0.00045428227 0.00046551684 0.00062140485 0.0009026261 -0.00022256793 0.0015035141 0.0017777865 -0.0011864335 -2.8563147e-05 0.002037247 -0.00029685075 0.00044542263 0.0010107018 0.0017143707 0.0002109892 -0.0009138782 0.0019006832 -0.00047498257 0.00055134506 -0.002317515 0.0016057122 -0.0015403603 0.000258544 -0.0010426618 0.00097373466 0.0012239934 -0.00195271 -0.0023060488 -0.001135056 -0.0012398055 0.0003906818 -0.00114459 0.0021728515 0.00016105614 0.0017774757 0.0012483955 -0.002355536 0.0014786038 -0.0016270255 0.0011182112 -0.00043239645 -0.0012694768 -0.0011317732 -0.0025508073 -0.00073724583 0.00094780995 -0.00087766215 -0.00092698744 0.000873473 -0.00075041055 0.0012263273 0.0018798384 -0.002183614 0.002391706 -0.0016525503 -0.002028851 0.0017415363 0.00093891856 0.0015306004 -0.0019713873 -0.0022779468 -0.0022254488 0.0014588719 -0.0014785456 -0.0010461499 -0.000879323 -0.0010395044 0.0015885337 -0.0012258193 -0.00043699867 0.001499683 0.0019552347 0.0009661826 0.0008478254 -0.0010702092 -0.00090652023 0.00022703661 0.00088305195 1.7415341e-05 -0.0008284557 0.0010711624 -0.0012604444 0.00079158467 -0.0020312406 0.00020251852 0.0011476516 0.00032205123 7.900984e-06 2.8540888e-05 -0.001596988 -0.002095986 -0.0012732144 -0.0004975747 0.0013781661 -0.00053302624 -0.0009020875 -0.0012627963 -0.0016048664 0.0014593593 0.0006196388 -0.0012006982 0.00040731922 -0.0022755717 0.00060418405 0.0020414738 -0.0014795236 -0.00043008276 -0.0009808849 0.00047169023 -0.0011076571 0.0014454477 0.0001090527 -0.0010819772 0.0011177632 -0.0022257199 0.0015039834 7.825141e-05 0.0021448454 0.0010163605 0.0016440557 0.001054231 -0.0011396994 3.8498034e-05 -0.0009928925 -0.0007052326 0.0010090069 -0.0007241369 0.00033525805 0.0009824125 -0.0012723944 0.0013108132 0.0020176212 7.2859904e-05 0.0019070156 0.00077570643 0.00035576808 0.0015288991 0.0013853842 -0.00012574499 -0.0020130426 0.000938467 0.0022313 -0.0014905519 -0.0023402972 0.0018507217 -0.0014964738 -0.0015533018 -0.00081717427 -0.0023977617 0.00157732 -0.00073415233 -0.0022092331 -0.0016392374 -0.00228821 -0.0007864804 0.001688219 5.378545e-05 0.0021641112 -2.839245e-06 -0.0018268827 0.00016116376 0.00020892548 -0.0021396496 -0.0022314636 0.00061253924 -0.0021906022 -0.0016787027 -0.0013176568 0.0020231407 -0.0009451146 0.002322909 -0.0008191823 -0.0012254468 -0.00020063155 0.002108981 0.0009899376 -0.0019382765 0.0018803714 -0.0012622792 -0.0006227086 -0.002041672 -3.5587796e-05 0.001576663 0.00021550605 0.00021795993 -0.00028700515 -0.00017000268 0.00056180666 -0.0006351511 0.0014753279 0.0015298835 -0.0003602548 0.00039098167 0.0008958435 0.00075432804
了 -0.00068225403 0.00065855804 0.00026544265 -0.0021591936 5.521212e-06 0.0002673651 0.0022021788 0.001484558 0.0006096814 0.0010841737 -0.0021540741 0.0018389244 0.00035657772 -0.0022153044 0.0010810274 -0.0008637127 0.00020767843 -0.0012264617 -0.00010286788 0.0010029664 -0.0017737914 -0.00051405997 -0.0011645504 0.00082974514 0.0021732077 -0.001074802 0.00090554287 0.0015698313 -0.0011615051 0.0011323158 0.0014311721 0.0022329793 0.00039609338 -3.2965065e-05 -0.0019351301 -0.0010945112 0.0004540692 0.001547294 0.0008967745 0.0008265521 0.0015703522 0.0024668123 0.0007865397 -0.00030394777 0.00064967654 0.001777688 -9.636165e-05 2.8116632e-05 -7.290225e-05 -0.0012798341 0.001595016 -0.0013411713 -0.0015214008 0.001728643 0.001363514 -0.0017445668 0.0015423379 0.0010944793 0.0015250318 -0.002277006 0.0007944306 -0.0012152322 -0.0011783831 0.0018435426 -0.0009193849 -0.0018891782 -0.0016812652 -0.0020915098 0.0005075883 -0.0017195516 0.0020339505 -0.0011338872 0.0015673988 -0.002075806 0.0021947122 -0.0001215345 0.0009827202 0.0017231506 -0.0018707726 0.0016511481 -0.0014995857 -0.00067418785 -0.0022945486 0.0018201763 -0.00080764166 0.00048091137 -0.002148946 0.0008012077 -0.0020293242 -0.0005767657 -0.001105179 -0.0008852831 0.00019133512 -0.0012469616 -0.0023169115 0.0005689418 0.0018221216 0.00046778016 0.0003315475 -0.0016242285 0.0013850536 -0.001195913 -0.00032204366 -0.0011963977 -0.0015356924 -0.00015170137 0.0011955827 -0.00034185528 -0.00084194087 -4.9762464e-05 -3.058043e-05 0.00096351607 -0.0024316267 -0.0009174469 -0.0005276175 0.0017627531 0.0010722277 -0.00074284396 -0.0008550583 -0.0020044718 0.00039320553 0.0013635822 -0.0012331487 0.00044289298 0.0019264414 0.0020463767 0.0018371353 -0.001826848 -0.0020448752 -0.00025360807 -0.0022921925 -0.0007810061 -0.001847016 0.0020744354 0.00054999004 0.001204103 0.00042799284 0.0011458716 -0.0006510186 -0.0023338655 -0.0004503792 0.0018396194 0.0024387648 0.0018381753 0.001884972 -0.0019139453 0.0009617838 -0.0001818873 0.0010374687 0.00017029462 0.0021491633 0.0021205295 0.00046993236 -0.0011596305 0.000355783 -0.001928652 0.0004458764 -0.0014196046 0.00058687886 -0.001251916 -0.0019166963 0.000984805 -0.0010139546 0.00085166056 0.0012335312 0.00081968826 -0.0007609625 -2.6849219e-05 -0.0014255727 0.0003102892 0.0013265172 -0.00038481285 -0.0018300795 -0.0009816848 -0.00094993936 0.0007113356 -0.0004187681 -0.0008987634 8.8737106e-05 -0.000972225 0.002132597 -0.00060229225 -0.0017480161 0.00037741603 0.0017818091 0.0005199004 0.0012526521 0.00017938984 0.0012473795 -0.00047821048 0.000569036 -0.0015271035 0.00047538406 0.0018485639 0.0010504707 -3.0122383e-05 0.0012142743 0.0020074183 0.0011960198 -0.00170378 0.0007343932 -0.00029474712 -0.00019509505 -0.0013688153 0.00067939557 -0.00078534806 -0.0007364039 -0.0019786712 0.0023318464 -0.0016512339 0.0010591047 0.0016775002 -0.0022430292 0.001206572 -0.0012442081 -0.0010765127 0.0018588486 -0.0002628407 -0.0003086728 0.00038146737 -0.0004636894 -0.0005647621 0.0025627315 -0.00036533832 -0.00087256904
怎么 -0.00012997631 0.002120452 0.00031371342 -0.0018938918 -0.0017665852 -0.00047664216 -0.00077306177 -0.00011307543 -0.0020935226 0.0011688266 0.00016243663 -0.00067694497 -0.0025083579 -0.0010289979 -0.0011936114 -1.1265949e-05 0.00046171423 0.0020192277 0.0002111022 -0.0021032824 0.0009114152 -0.0020987203 -0.00063959666 0.0021315932 0.00016559027 0.0014041475 -0.0019567737 0.0007626864 -0.0009304168 0.0021759924 -0.00031523372 -0.00051171775 0.0021099134 0.0012290926 0.00042753067 0.0005350298 0.0015521287 -0.00043999817 0.00061350956 0.00033679922 0.0019398727 9.028965e-05 -0.0020134305 0.0018904334 0.00047472166 0.0015796949 0.00038984703 -0.0018989429 0.00051471364 0.0017291388 -0.0010083524 4.1129002e-05 -0.0017432409 0.0017178899 0.00010354505 0.00020456032 0.0007049711 -0.0006460123 0.0015183949 -0.0007528291 -0.001642049 -0.00032898394 0.00018167797 0.0020714984 0.0010009444 -0.00010473851 0.00141757 -0.0020830608 -0.00020222312 0.001189768 0.0021490387 0.000606471 -0.0003779118 0.0010483831 0.0020482729 0.000363304 -0.00069649564 0.0014410699 0.0016189283 -0.0016182468 -0.00033472496 -0.0020104654 -0.0016430716 -0.00020908243 -0.0014096281 -0.0006257911 -0.0016494255 -0.0007259504 0.0018550062 0.0010787942 0.00027164872 -0.0011520936 0.0006910373 -0.0017470795 -0.0006345972 0.0013791013 0.0019896936 0.0009165953 0.0013099042 -0.0009993705 -0.0012242126 -0.00037568048 0.00073450926 0.00059067394 0.00204883 -0.0017040963 -0.00045539936 -0.0014640711 -0.00049301115 -0.0002468138 0.000878049 0.00079265994 0.0016807069 0.0021786732 -0.0009791381 0.0002548568 -0.0016076908 -0.0016811437 -0.0016385941 0.0006593308 0.000118201584 -0.00020045962 -0.001591921 0.0001877679 0.0015585975 -0.0010537576 -0.0018547549 -0.0011579912 -0.00056203076 0.0019077562 -0.002233711 -0.00079443236 -0.0007013675 -0.0010792644 0.0017616526 -0.00075920916 0.002285755 -0.0021480827 0.0008124692 -0.0021594132 -0.0014279891 -0.0006447605 0.00093265646 0.0010301741 0.00040278793 0.0017130588 0.0012931664 0.0015829012 -0.0010439637 0.00044815702 0.0021834553 -0.0014760784 0.0016391441 0.0019265854 0.0005777326 0.00051121414 -0.0010824562 -0.0022386138 0.00041399157 0.00096504734 0.0019100532 0.0022119265 -0.0014328752 -0.0015232705 0.00032548353 0.00095831574 0.0005011831 0.00069417397 -0.00018378197 -0.001866117 0.00096362113 0.001031315 -0.00071786856 -0.002238917 0.001847255 0.00018338143 -0.0008288264 -0.00096277194 -0.0011865989 0.0010511253 -0.00051113195 -0.0012405206 -0.0020310243 0.0019309692 -0.0023747683 2.5073368e-05 -0.0017743916 -0.0003788552 0.00031340405 0.00034985965 0.0012120167 0.0014816293 0.0011570313 0.0006541091 -0.00039836823 -0.0010156353 -0.0016862743 -0.00026507757 -0.0011223536 -0.00013972497 0.0010381583 0.0016592337 0.00026021726 -0.0016255636 0.00097423355 0.0020423254 -0.0004959402 -0.00078900234 -0.0009778095 0.0020091261 0.0002846296 -0.00046707763 -0.0010170944 -0.0011162595 -0.0003960215 -0.0022241732 -0.0019396142 -0.0014992917 0.0018276359 -0.00024209176 0.001309811 0.0006890374 0.001539305 0.00025348717 0.0015089776
为什么 -0.0020715222 -0.0020973922 -0.0002832646 -0.0012174306 -0.0015117162 -0.00078436633 -0.00134749 0.0015707356 0.0011773083 0.0015792855 0.0012762726 -0.0009195302 -0.0024449856 0.00062119495 0.00081429724 0.001858752 0.0019305827 0.0007584448 0.0018850226 -0.00012849612 -0.0015097597 -0.0016174327 -0.0010342607 0.00206786 0.00034982344 -0.001307175 -0.0013796492 -0.0014566628 -0.00094482873 0.00024390017 0.0011723832 -0.0005590571 0.0022804923 -0.00046803884 -0.0020030162 -0.0001246243 -0.0014272535 0.0012737599 0.0021954544 -0.0019464794 -4.6836638e-05 0.001993373 0.0021242632 0.0007893393 -0.0007205142 -0.0008965425 -0.002019849 0.002019834 -0.00031078598 0.0014424867 -0.0021123546 0.002003522 0.0013576468 0.0015116835 -0.0009952297 0.002101925 -0.00071308576 0.0012422818 0.0008274142 0.0007288794 -0.0008889223 -0.0013772201 0.002182346 0.0006184607 0.00049340684 -0.0020925077 -0.0007114673 -0.0019263745 0.0010573647 -0.0010851267 -0.0021478308 -0.001689056 -0.00044587156 -0.0020872534 0.0019227477 -0.0010655291 -0.0001841354 -0.00071602315 0.00072024576 -0.002004098 0.0019314745 0.0005459002 0.0012747407 -0.00086496456 0.00068244373 -0.000826982 -0.000923998 0.00058187154 0.0007600612 -0.0016951371 0.0007000314 -0.0015265541 0.0012079155 -1.4109948e-05 -0.0021853652 -0.0014120096 0.0021372833 0.0019479161 0.0010164767 0.0019412594 -4.520495e-05 0.0018656799 -0.00013165841 0.00034292994 0.0010341621 -0.00088765693 -0.0011624314 0.0016898155 -0.0012097949 -8.2308594e-05 -0.001982788 0.0018749163 0.00015823697 0.0017030084 0.00050878146 -0.00069235975 0.0022628 -0.00044642662 0.00073670305 -0.00020534269 -0.00033743447 0.0007264551 0.0012555467 -0.00041447624 0.0017998351 -0.0003868396 0.0020355072 0.0017541593 -0.0012530118 -0.0020319922 -0.0021041657 0.00016751283 -0.00083522627 -0.002169229 -0.0014789087 -0.0015192771 0.0015659211 0.0018423666 -0.0009143725 -5.1986863e-05 -0.0004110065 -0.00020315454 -0.00026140577 -0.0014067065 -0.00063548493 -0.0008936051 0.001231823 2.0805157e-06 -0.00032379996 0.0019222456 -0.001636912 -0.0012318329 0.0014906572 0.0023836466 0.000868002 -0.00035689858 0.000811782 -0.0020964663 1.4817255e-05 -0.0010469564 -0.0005762621 0.0009770426 -0.0019318912 -0.0015292257 0.0003185767 0.00015471461 -0.0008498085 -0.0010122356 0.00014047173 0.0016612908 0.002412486 0.0020704237 -0.00020404442 -0.0016287428 -0.001129078 -0.001198573 0.00045597358 -0.00040638025 -0.0014789499 0.0003578198 0.0018187731 0.0005732126 0.00027939255 -0.00036086346 -0.0020516277 -0.00012063833 0.0017036467 0.0021751479 -0.0004897019 0.0010000138 0.0006681626 -0.0015045125 0.00079695776 0.0018098209 7.994108e-05 0.0012848518 0.00022425433 0.0018612226 0.000870428 -0.00052817166 -0.0015978428 -0.00062364107 -7.7043405e-05 -0.0010107616 1.4200077e-05 -0.0015077153 -0.0011942912 -0.0015361089 -0.0003356944 0.00028813444 0.0017549605 0.0006182274 -0.0008146044 0.0017985351 -0.0015005871 0.0004319668 0.0009838301 -0.0017227072 -0.001091655 -0.00044592272 4.3992346e-05 0.00042540624 0.0017355109 0.0005489914 -0.00020412917
还款 0.0009962673 8.5936794e-05 -0.0021174 -0.00035187133 -0.00014966098 -0.0015448262 0.0012855905 0.0018341015 0.0012091895 0.0008925269 -0.0010322765 0.0015162207 -0.0017061497 -0.0018119224 0.0003840935 0.00064590736 -0.000397948 -0.0014154821 -0.00013870723 0.00014582013 -0.0016147105 -0.0010534303 -0.0022267795 -0.0010609026 0.0019379244 0.0016911522 0.00010586269 0.00062788086 0.0013107135 0.0019464162 0.0004890715 -5.383586e-05 -0.0015764 0.0020058313 0.00033183143 0.0016719284 0.0017218348 -0.0019973398 0.001620961 0.0007641151 0.002042985 0.001041739 0.00015808736 -0.0021413504 -0.0010513093 -0.002045418 -0.0021472315 0.0011723081 0.00015598228 -0.0018526814 -0.00072117534 0.0014831682 -0.00043925343 0.0021188427 -0.00025068186 -0.00096956256 0.0018624463 -0.0013902617 -0.00059428636 0.0012103273 0.0020750316 0.0004976586 0.0012863582 0.0019589283 -0.0006751733 0.00043673874 -0.00213104 0.0010557796 -0.00019184694 0.0010707043 -0.0015859364 -0.0016144217 0.0019954501 -0.0006112381 -6.1830856e-06 -0.0010302807 0.0010282563 0.0022517282 -0.0021409637 0.0003780864 -0.0004262745 -0.0015876177 -0.0013872848 0.0021372882 0.0016979822 -0.0012199272 0.00039948037 0.0020717878 0.0008538439 -0.00029775788 0.0019309109 0.0006766647 0.002407104 -0.0020682584 -0.00091852114 0.0005035239 2.107462e-05 0.0006282609 0.0011383678 -0.0009451007 -0.0018862515 0.0020088116 -0.0019903628 0.00074553036 -0.0011336661 -0.0015830438 0.0015730574 -0.00010937542 -0.00044572266 -0.0013836444 -0.0013049482 0.0009873316 -0.0005037938 -0.0007169738 0.0010951034 -4.639253e-05 -0.00086327863 -0.0016533736 -0.0016533644 0.00010927336 0.0010100175 -0.0014859247 -0.0018288697 0.00078826124 0.0021533687 0.0020756975 -0.0007609136 -0.0016054279 -0.0020027224 -0.0010671013 -0.0019350506 0.0016014739 -0.0016354932 4.3621647e-05 0.0017125932 -0.0012897623 -0.0016015522 0.0022226335 -0.00024559107 -0.001487013 -0.0004966134 -0.0004037156 0.0011240841 0.0022979402 -0.00074258924 0.00023543031 -0.0013772335 0.0023333137 0.0020124232 0.0021247077 0.00046845165 0.0017085747 -0.0008381644 -0.0012286076 0.0022359428 0.0013779607 -0.0009358092 -0.0007466991 0.0008825682 -0.0014240152 0.00043302556 0.0020256825 0.0019478777 -0.00032732397 0.0004576357 0.00067280827 -0.0017167067 0.0011237436 -0.002381864 0.0007242874 -0.0007724364 1.6015021e-05 0.0010904626 0.0014136204 -0.0017061763 -1.4323987e-05 0.00024976546 0.002194115 0.0015021602 0.0007689094 0.0016598123 -0.00051943 -0.00012935777 0.0011901361 -0.0009351471 0.0011328083 0.0016528025 -0.0018958328 0.0013891361 -0.00037597466 -0.0015328032 0.00021243087 -0.0016104025 -0.00092237536 0.00081174617 -0.0005808523 0.0009637856 -0.0012828984 -0.0011814563 -0.0010700586 0.0022810954 -0.0008789659 4.3295415e-05 -0.0023688753 -1.4748096e-05 -0.0006060343 0.0012699913 0.0020560978 0.0017209696 -0.000681558 0.00016128783 0.0024107983 -0.00028152642 0.0014391637 -0.00066553644 -0.0019029963 0.0012385267 0.0005293565 0.0003156213 -0.0010327239 -0.00077504246 0.0014485485 0.0007843687 -0.00031136954 0.0009894294
微粒 0.0013593296 -0.0005192283 0.0005177822 0.0012858004 -0.0010060106 0.0013488198 -0.00035641808 -4.1452982e-05 0.0016023783 -0.0017345028 6.7065244e-05 0.0017801069 -0.0023908755 -0.00011594352 -0.0018610745 -0.00014088827 -0.0018803934 0.0017871145 -0.0010624414 -0.0013661187 0.0016502462 -0.00090013107 -0.0015288128 -0.0003127266 -0.0010472941 -0.0006747333 -0.00019215849 -0.001627442 -0.0007932025 0.00020751734 0.0010525043 -0.0006568582 -0.00012378088 0.0011864833 -0.0016447641 0.0019191514 -0.0018234507 0.002017079 -0.00011252623 0.002231689 -0.0007344914 0.00016307975 -0.000563526 -0.0016566386 -0.0022056082 0.001956407 0.0017836486 -0.0012565689 -0.0018042247 -0.00096371875 0.0004196755 0.0004928256 0.0009739639 0.0005013241 -0.0008610542 -0.0014888939 -0.0003538319 0.00017705925 0.0021414517 0.0007684815 -0.00017428759 -0.0020329987 0.0007433132 0.001424646 -0.0013621072 -0.00040839743 -0.00014331966 -0.001371368 -0.0004917849 0.0017759519 -0.001239754 -0.0002781071 -0.0008316968 -8.51304e-05 -0.0012936994 0.0016776152 0.002107754 2.1856988e-07 -0.000554204 -0.0011771105 0.001930164 -0.0008926111 -0.0010940583 -4.1626972e-05 0.001365203 -0.0017559599 -0.0015050573 -0.00095909555 -0.00185263 -0.0012678351 0.0019066597 0.0020822436 0.0011446177 -0.0016671997 -0.0015769214 0.0006286751 0.0012595628 -0.001087313 0.0005223472 0.0005628681 -0.0011777892 0.00069794495 -0.00046748095 -0.0016468789 0.00032099217 0.00050565094 -0.0006238572 0.0011100315 -0.001996562 -0.00037515062 -0.0013632516 0.0022556449 -0.002278135 -0.0015781219 -0.0008077195 0.0017453512 0.0013602076 -3.572844e-05 0.0011872269 -0.0010226719 0.00043473416 0.0009271514 -0.0011116726 -0.00032726125 -0.00029829697 -0.0017035647 -0.0004692159 -0.0011735103 0.001677439 0.0012072127 -0.0022092669 0.0012856207 -0.00010736909 0.00048129426 -0.0019330279 0.001855066 0.00045036647 0.0013611699 -0.00023957917 9.260133e-05 -0.0008323456 -2.9896846e-05 -0.001966347 0.0019021345 0.0014711043 -0.0015290327 -0.0019247707 0.002154426 0.00093407003 -0.00010490913 -0.0008853888 -0.0019572214 8.528052e-05 0.0016749346 0.0024696186 -0.0017805514 0.00029269984 -7.082213e-05 0.0009572483 -0.00074231124 0.0012591169 0.0022076848 0.0017283576 0.0016805435 0.001519725 -0.0021050212 -0.0006901422 -0.00072231324 -0.0006709702 -0.0015624284 0.0020018385 -0.0006260173 0.0014097084 -3.113133e-05 -0.0016690638 0.0020355 -0.0010764649 -0.00015821097 -7.5885844e-05 0.001350589 0.0017725917 0.00047938965 -0.00219305 0.0010811221 -0.001960964 -0.0006971999 0.0012681957 -0.0014130014 -0.002232528 -0.000523423 0.0013656575 0.0010822156 0.0008053165 -0.0011774433 0.00011924863 -0.00075431954 0.00028318158 -0.0009981126 -0.00057543785 0.00043243953 0.0002600123 0.00034327884 0.00031710885 0.00045480745 0.00070367986 0.0016794698 -0.00041926734 0.0019870263 0.0007146947 0.0010203192 -0.0004199294 5.4849363e-05 0.0011028562 9.299917e-06 -0.00081354874 -0.0010786209 -0.00041132292 0.0013353035 -0.0012019585 0.0015301796 -0.0015646423 -0.002339503 -0.0010338255 -0.001662662 0.0013906017
借款 -0.0013461217 -0.0008646142 0.0020862678 0.00093291095 -0.0013891064 0.0013126195 0.002280228 -0.0005752118 0.001510915 0.00030415348 -0.001914572 -0.0018122995 -0.0011398628 0.0011474977 -0.0011269388 0.0014974741 -0.002283694 -8.64874e-05 -0.00018447882 -0.0012633456 -0.0018308237 0.0014539851 0.00030483108 -0.00079676276 -0.0007769433 -0.00020944483 0.0019047689 -0.00022822234 -0.0001910773 0.0017216007 0.0010874652 0.0015488433 0.0022456641 0.0021078438 0.0009483539 -0.0011525742 -0.0015728851 -0.001818075 0.0012745224 -0.0005832646 -0.0019106566 -7.056491e-05 6.93492e-05 -0.0017094654 -0.0022769314 0.00056848564 -0.000674796 0.00047746947 -0.0016717938 0.0016136676 -0.0011895822 0.00033980235 -0.0005620512 0.0008261619 -0.0015262748 0.0020699576 0.000474303 -0.0015751215 -0.001243677 0.0009605683 0.00059643976 0.000721401 0.00030892735 -0.00089780847 0.0013229189 -2.1327647e-05 -0.0016020066 -0.001670791 -0.0014566968 -0.0011771375 -0.00054365466 0.0019927726 0.0010749918 -0.0021000756 -0.00025030837 0.0019663975 0.0019553443 0.0018271571 0.0017196403 0.0010163225 0.0020805406 0.0016146153 0.0015212441 -0.0012438529 -0.0012116682 -0.0010568239 -0.0008374576 0.0010059639 0.00045343483 -0.002266999 -0.0022773698 0.0010787229 -0.0009827452 -0.00013243157 0.00023740737 -0.00029381245 0.0011001314 0.0005193106 0.00017373289 -0.00084464025 -0.0011574926 -0.0017748231 0.00057439075 -0.00029676539 0.0009720458 0.00034534055 0.0005605387 -0.00019277418 -0.0018597266 -0.0005433266 0.00039211422 0.0015512621 0.0014436285 -0.0019697817 -0.0011639561 0.0017278788 0.0013307224 0.00056328735 0.001252461 0.0009038059 -0.0013208528 0.0008817953 0.0012324171 0.0013236173 0.002540227 0.0013640773 -0.00027704544 0.0012186533 -0.0004993485 0.0010176526 -0.00061489706 0.0017165806 0.0012153562 0.0015029607 0.0008934654 0.0019162607 -0.00032980912 -0.0009628316 0.0014289388 -0.001239255 0.0007780789 -0.0011452078 0.002062563 -0.0016037312 0.0017971287 -0.0016978155 0.0011095853 -0.00049079995 -0.00219465 3.4984405e-05 5.668368e-05 0.0014262438 0.0011473922 -8.2457234e-05 -0.0010899625 0.0014379192 -0.00064146874 -0.00015747416 -0.0013387514 0.00079967553 -0.00080178 0.000789159 -0.0011421316 0.00051305635 -0.0020450326 0.0019950576 -0.0017441319 -0.0018618744 9.7567914e-05 0.0005308717 0.00077333744 -0.0008196682 0.0004617172 -0.00051130465 -0.0015263039 0.00032629908 -0.0011255266 -0.001387949 0.0014422598 0.0016364806 0.00023277613 -0.0019128436 0.0020318339 0.0002154494 -0.0010044025 0.0020513698 0.0022302943 0.000714604 -0.0002038694 0.0016629972 -0.00057631877 -0.0009715186 0.0012617254 0.001107043 -4.2624448e-05 -0.0010057399 0.0006719131 -0.0015576738 0.0013816415 0.0008079198 0.0006377502 -0.0018383373 -0.0009611184 -0.002174296 -0.001025586 0.00082503364 0.0020912676 -0.00039415978 0.0018324042 -0.0012314401 -0.00033970174 0.0013727791 -0.0020156682 0.0005146535 -0.001029379 0.0007902745 0.0017675083 0.0018533284 0.0019163225 -0.0009611367 0.00019228586 -0.0023020713 0.00090476987 -0.0007408945 -0.00046148818
还 -1.0133598e-05 -0.0024089706 0.0008400901 -0.0011445162 -0.0011013024 -0.00078273704 0.0020867642 -0.0013224559 0.0009809717 -0.0016129388 -0.001664056 0.000380046 -0.0021352968 0.0009230012 0.0010267633 -0.00054284354 -0.00018285803 -0.0010127412 -0.00031037233 -0.0018913032 -0.0018667623 -9.2139286e-05 0.0016952498 3.8902774e-05 0.0012989453 -0.0012515483 -0.0014017175 -0.00010660596 -0.0012173586 -0.0005293413 -0.00095469516 0.0003371429 0.0022974475 0.00045534832 -0.0022559916 -0.0010651889 -0.0013631025 0.0014458259 0.0013745391 0.00017264656 -0.001551487 0.0004230606 -0.00062957447 0.0013756786 0.00035282038 0.0017367026 -0.00010244102 0.000868985 -0.0014373438 -0.0007094819 -0.0014800748 0.0009832685 -0.0019055011 0.001181074 -0.0018808777 -0.0007567429 0.0009684044 0.0017837423 0.0015240815 -0.001223723 0.00014652043 -0.002323479 0.00040428503 0.0005847341 -0.0014691715 0.0012781011 -0.0021185963 0.0008730848 0.00029996192 -0.0015856036 0.0016039899 -0.0016503003 -0.0016177152 -6.0481692e-05 0.0014869253 -0.00044296743 0.0005764107 0.0013385954 -6.526815e-05 0.00016898589 0.00046819035 -0.0013580222 0.0012543963 0.001075413 -0.0018162864 -0.00063406996 -0.0012388338 0.0011412405 -0.00053833745 0.0015673046 -0.0014402414 -0.0018250983 0.0021302851 -0.0020957342 -0.00038463142 0.0013286788 -0.0009717714 -0.0017610001 -0.0013427414 -0.0017685285 0.0003913814 0.0024563153 -0.0009343908 0.00014124704 -0.00026985462 0.001140362 0.00039378082 -0.0006753189 0.00074739615 -0.0015895945 -0.0019066379 0.0015265337 -0.0018223254 -0.0008460855 0.00086623087 -0.0007723229 0.00024882134 -0.001133234 -0.0014679129 -0.0015066718 0.00069640146 0.0012217893 -0.001440606 -0.00024398517 0.0016247397 0.0010502422 0.0016299323 -0.0023141205 0.0009241486 0.00060410023 -1.2020957e-05 0.0009092954 0.0016240245 -0.0009857058 0.00012425538 -2.1095188e-05 0.0016492074 0.0003196028 0.00082908804 -0.0022719435 0.0018265198 -0.0016969916 -0.0015258291 -8.8623216e-05 5.313224e-05 -0.0012156366 0.00028737655 0.000527952 0.0004894167 -0.0012733771 -0.0009935912 0.0006000544 0.0016571276 0.00031528415 0.0018517417 0.0015232842 0.0015756194 -0.0023356841 -0.0001143436 -0.00061280595 0.00021280775 0.0024408246 0.0007034515 -0.0008295538 0.0018413214 0.0005132275 -0.0009470233 0.0017737565 -0.0010021273 -0.002147627 -0.00050611654 0.0002825427 -0.0016487305 -0.002500537 -0.0014008912 -0.0013950075 -0.0013010399 -0.00067607226 -0.0013442446 0.00037415558 -0.0006191403 -0.0023553185 0.001409857 0.00025039972 0.0018672976 -0.0011992216 0.001711244 -0.0009250291 0.00066140626 0.00075581577 -5.7803838e-05 0.00017333453 -0.0006129103 -0.00042358102 -0.0018513756 -0.0005633902 -0.0014488691 0.0010122737 0.001330869 0.00096923823 -0.0015303317 -0.00011274006 -0.00028007923 0.0014853082 -0.0011633079 0.0016341638 0.00040930108 -0.0010607425 0.0019068996 -0.00068571814 -0.0018666834 0.0020419154 -0.0020858669 0.0010614032 0.0020471313 -0.0019444741 0.0005225838 0.0010886778 -0.00012260271 0.0021108906 0.000406805 -0.00043729652 0.0007467167 -0.00035545972 0.0004152166
贷 -0.0015972372 0.00089075876 0.001457743 -0.00016052667 0.0017994529 -0.00038394943 0.0012029242 -0.0018158044 0.0021869945 -0.0012406844 -0.0019253741 0.0008159541 -0.0006889109 -0.00018708252 -7.372166e-05 0.0019586158 0.00053537305 0.0015776763 0.001579716 0.0015034142 0.0006446267 0.0014044498 -0.0019299809 0.0003294018 0.00071884785 -0.0005717314 0.0006402623 -0.0007138134 -0.0013630261 -0.00014909152 0.0019439161 -0.00038934345 -0.0019803203 0.0006841604 -0.0011923508 0.00038898294 0.0011165211 -0.0020463392 0.000486376 0.0016297116 -0.0001017905 0.0010565703 -0.0011504096 0.0020927808 0.0021114764 -0.0011458428 -0.0014648754 -0.0013406008 -0.0016186569 0.0013701246 0.00040653144 -0.0013375244 -0.0019114449 -0.00033969549 -0.00063751475 0.00017213474 -0.0020148237 -9.574301e-05 -0.00045922433 -0.0010089783 0.0012498527 0.0016948042 -0.0002167693 -8.403423e-05 -0.000202791 -0.0014125383 -0.0017658332 0.00087739417 0.00075200235 0.0010267361 0.0019360286 0.0012777324 0.0011566629 0.0013483365 -0.0003769789 -0.0006423648 0.0006332775 0.0008667096 -0.0021746852 -0.0017974271 -0.0015526811 0.000693857 -0.00211171 0.0015825452 -0.001973692 0.0017278151 0.001358215 -0.0017374655 -0.0009963452 -0.0008562822 0.0004618639 -0.00016814248 -0.00095221016 -0.0011641843 8.797506e-05 0.0008578949 0.0020913675 0.0009675087 0.0005871485 -9.870953e-06 0.001758808 0.00011585668 -0.002077562 -0.000894159 -0.00027176033 0.0012557141 -0.0012908501 0.0013871887 0.00012809588 0.0017394586 -0.0018089822 -0.0013745576 -0.001375562 0.00016377865 -0.0020975417 -0.00073659496 0.0009871465 -0.0007918291 -0.0013081864 -0.00011713748 -0.0022081363 0.001580921 0.0003513032 -0.0017592335 0.0022376738 0.00093921553 -0.00051402964 0.0009432402 1.4720097e-05 0.0014373962 -0.00062279 -0.0020444517 -0.000846704 0.0001674226 -0.0009034953 0.0018084343 -0.0018938263 -3.5890556e-05 0.0015731929 0.0004068628 0.0015141891 0.0014526297 -0.0018452918 0.0021087811 0.0009006052 0.0019365842 0.0017551733 0.000410643 0.00029454756 2.7182576e-05 -0.0011560897 0.0011187864 0.0013965636 -0.00017946039 0.00061163644 -0.0018582363 -0.0009517181 -0.0013962288 0.002111567 -0.0013720838 0.0006212491 0.0022675584 -0.0010835525 0.00029180007 0.0009359844 0.00022868371 -3.956167e-05 0.0006704918 -0.00028515913 -8.7001106e-05 0.0016509396 0.00010330901 -0.0007473351 -0.0017134718 -0.0019200533 0.00088489556 0.0021412945 0.0005751033 -0.00032695523 0.00078681274 -0.00018324098 -0.0012144838 -0.00038953297 0.00013718304 0.0011288031 -0.002208034 0.00056888256 0.0016430854 4.8259564e-05 0.00035667547 -0.00062401046 0.00080392114 0.0013229438 -0.0007880221 -0.0022289525 -0.0016023043 -0.00070744293 0.0007960919 0.0008966393 -0.0015905923 0.0011107787 8.397984e-05 0.0021505961 -0.0016402354 0.00079811085 0.0010419807 -0.0014050698 -0.0006670834 0.00091993494 0.0011116365 0.0021617115 0.0020844552 0.0020901458 0.001070732 -0.0021375122 -0.00056145596 -0.0015710471 9.426142e-07 0.002037495 -0.00080768194 0.000249734 0.0011798722 0.0010030649 0.0012145153 -0.00076349056
可以 0.000992344 0.0012049044 -0.00022283618 -0.0012352661 0.00026927472 -0.00022174555 -0.00021009924 0.001897062 -0.0021339261 0.0015809174 0.0006901344 0.0005114858 0.0019133424 -0.0009509093 -0.00020333436 0.0015799605 0.0021220334 -0.0008578461 -0.0007671813 -0.0014437054 -0.00054247334 -0.001555408 -0.00014437831 0.0013037948 -0.0013841257 -0.0008612836 -0.00040506214 -0.002057644 -0.0016455717 -0.000599872 0.0022521003 0.0022030324 0.0009127318 0.0012239794 0.0007288374 0.0003999063 -0.0011843827 -0.0007345842 0.0014478324 0.0013846938 -0.0015310294 0.001957798 -0.0009769798 0.00042340107 -0.0011786106 0.0018132463 -0.00058359024 0.00078108325 0.000975906 -0.0013131743 -0.0011196103 -0.0020247046 0.0015906892 0.00020619537 -0.000258173 0.0010980872 -0.0004881525 -0.0017810874 0.0004003381 0.0018429874 -0.00032586287 -0.0013840087 0.0010362866 -0.0008880128 -0.0016623287 0.0012871278 9.2529364e-05 0.0018104145 0.001125342 0.0012504567 -0.0008204175 -0.0015123902 0.0016976562 -0.00045234893 -0.0010029237 0.001047678 0.0002546136 -0.0006757745 -0.0016791217 0.001994366 0.0017630063 0.00039375515 0.0006153835 -0.00021285481 -0.0015873169 -0.0020570809 -0.00087655114 0.0015062152 0.001916422 -0.0017310029 0.0020334818 -0.0015928062 -0.0017924109 3.9797575e-05 -0.0021382407 0.00070162484 -0.0021415777 0.0009137681 0.0017793885 0.00070901634 -0.00080080424 -0.0006074296 -0.0019279165 -0.00087136007 0.00038025694 0.0017717553 0.0016458158 -0.0014816799 -0.0010063044 0.0006780906 0.0009154326 -0.0013334318 -0.0015014418 0.0011134302 -0.0006310496 0.0003285409 0.00048501306 -0.0013121519 0.00033840336 -0.0019788886 -0.0016067473 0.0022512686 -0.001721729 0.0006669343 -3.934302e-05 -0.0005823303 -0.001408237 -0.00011554416 -0.0016799374 0.0015774665 0.0013866901 -0.0018781632 -0.0019177932 -0.0008198884 3.5586118e-06 8.566942e-05 -0.00017229197 -0.00054275425 -0.0012850947 -0.00084132084 -0.00028614854 -0.002385569 0.00077703455 0.0019305069 0.0019849888 -0.0017145216 0.00014360645 -0.00031673108 -0.0009960848 0.0010795918 -0.0016038372 0.0014725613 -0.00031137126 -0.0011643966 0.0021165537 0.00078809087 -0.0014546192 -0.0008844168 0.0010910864 -0.00039915094 0.00043860206 0.0004961455 -0.001443961 -0.002167431 -0.00042787712 0.00182693 0.000776439 0.0013784892 -0.0012674688 0.0018641648 -0.0015569582 -0.00036243707 0.0012263044 0.0019317983 -0.00033258033 0.001639135 0.0003530699 0.001908024 0.0019660052 0.00071522314 -0.0008746432 -0.00045526368 -0.0008416954 0.00033132598 -0.00060168194 -0.0016770255 -0.0006528939 0.0019979845 -0.0022376035 -7.432553e-05 0.00013824056 0.0005118798 -0.0021258425 0.0015633235 -0.00029809048 0.00072923914 8.733376e-05 0.0008369177 0.00047968014 0.0014353079 0.001362521 -0.00040835637 -0.0019551471 -0.00046868695 0.0022134215 0.0012003047 -0.0004889972 0.0015568763 0.0018961668 0.0017344198 0.0010352064 -0.0010016797 -0.00030136312 0.0012932345 -0.0021231093 -0.0011671202 0.0017950123 0.00012736807 5.2433767e-05 0.0013740188 -0.0015558249 -0.00046570352 0.0023136297 0.0010233235 -0.00013983923
没有 9.639669e-05 0.0020171646 0.0019492054 -0.0021961879 -0.00094960886 0.0009445769 -0.0007733514 -0.0007378887 0.0022401814 0.0014391802 0.0007321334 0.0011315574 -0.0016736159 -0.0016169302 -0.0015080646 -0.0017451221 0.0012712262 -0.0013726925 0.00027471542 0.001707026 -0.0018702763 0.0017453999 -0.0016506015 -0.00047629038 0.0010284847 0.00095761387 -0.0015772462 -0.0010352071 0.0012418814 -0.00058474194 0.0013523184 0.001173591 0.00016315801 0.0021038551 -0.0016401683 -0.0020275959 -0.0022336463 -0.00015765897 0.0006948182 -0.00042268017 0.00078419584 0.00056507497 0.00030898137 0.0006944433 0.0013732911 0.00059748953 0.0011623059 0.0011568865 8.65953e-05 0.0007758186 7.595068e-05 0.002170951 0.00048414138 -0.0018536516 0.0014277294 0.0002269934 0.0018328445 -0.00043716602 -0.0009194388 0.0010326463 0.0020057843 0.001797432 -0.00043242692 -0.0019415246 0.00048654093 0.0011993402 -0.0014671193 -0.0013011483 -0.0017138597 -0.0006465755 -0.0013265059 0.0011070949 -0.0018217141 0.00024095924 0.0010482086 -0.0020780514 -0.0011372556 -0.0019838545 0.0012887734 0.00090758636 2.5034728e-05 0.0006217621 -0.0014488654 0.00013009875 0.0020058653 -0.001031111 -0.0007482132 -0.00018123048 -0.0015022125 -0.00026171186 0.000103545164 -0.0014172801 -0.0017428459 0.0017909904 0.00058710057 -0.0018704 0.00086623646 -0.0019625477 -0.001539032 -0.0013723136 0.0011249399 0.0012938422 -0.0009494298 -0.0020495518 -0.0019798463 0.00011118391 -0.0007287288 2.1706657e-05 0.00034329647 -0.0014291337 -0.0013634122 0.0008558029 -0.0013823508 -0.0001010548 0.0014956365 -0.0002805286 -0.0004465935 -0.0003728218 0.0020004683 0.0011503337 -0.0009257247 0.0019401013 -0.001870802 -0.002302125 -0.00070538337 0.00087127206 0.0007733866 0.0019994304 0.0005657186 -0.0010886139 0.00053151796 0.0019640487 0.00010584532 -0.0009198527 0.0017698138 0.0009064696 0.001743142 -0.0017941779 -0.0011947391 0.0008214754 -0.0014804632 -0.0023071954 -0.0020004665 0.0010185993 0.00040096845 0.0016997275 -0.0003521392 -0.002036235 0.0011357011 -0.0014727883 -0.0008786084 0.0011634241 0.0023077715 0.0021761844 0.002188102 -0.00047546957 0.001270831 -0.0017846818 -0.00118864 -0.0013736435 -0.0014634026 6.699361e-05 -0.0015919628 -5.8182777e-05 -0.00016525667 0.001665252 0.0001323545 0.00052861456 0.00012321373 -0.0012566786 0.00062589446 -0.0005807398 -0.0009037691 0.001549798 0.0018987563 -0.0017434215 -0.0020885835 -0.00084983854 0.0017001863 0.00026375716 0.000303689 -0.00067681423 -0.0021886448 -2.6514528e-05 -0.0015652935 -0.00038549805 0.0018630957 -0.0008147068 -0.0007677295 -0.0009252399 -0.0014812427 0.00080193894 0.0016018277 0.0018028114 -0.0016798242 -0.00034604437 -0.00042110242 -0.00032768256 0.0019112634 -0.0006276465 0.0012213346 0.00018920194 0.0018887102 -0.00043068518 0.0009893895 0.00030701517 0.0012625072 0.00033173457 0.00095374364 0.0006006785 -0.0022237073 0.0014783886 0.00031524998 -0.0002738142 0.00069505186 0.000881063 0.0019093805 -0.0017266073 0.0020854196 0.0014109499 0.0015007063 -0.0019831103 -0.0018063604 -0.0018424719 -0.0012255153
吗 0.0009351887 -0.0020076514 0.0021558856 0.00015226238 -0.0010530086 -0.0007530266 -0.0006363772 0.0019801492 -0.0020969366 0.0013516824 -0.001655538 0.00055956066 -0.0003774761 -0.00070207904 -0.0011522158 0.0007502332 -0.0010662931 0.00023941672 0.0020289733 0.0022141568 -0.0017360535 -0.0008180199 1.5447795e-05 -0.0013250408 -0.00030807254 0.0011880453 0.002001675 0.0008498744 -0.0004147685 -0.00032587218 0.0023985242 -0.001175429 -0.00037951051 -0.00096529623 4.6832196e-05 0.0004264573 0.0016026221 -0.0005505364 -0.0009979625 -0.001119405 0.00026379316 0.0007933021 0.00089039566 -0.000108329245 0.0012974819 0.00048761573 0.0016391836 -0.0016593001 -0.00029272676 -0.00074081914 0.0019520906 0.0013890559 0.00015984793 -0.00066240324 -0.0009742726 -0.0008780715 -0.0017174103 -0.0004946143 0.002370126 0.00089867046 -0.0016771682 0.0010704264 0.001958293 -0.0007381262 0.0009887187 -0.0005195981 -0.0021990235 -0.001849446 0.00033938355 0.0010176654 -2.311196e-05 0.00053668465 -0.0011281142 0.000110865294 0.00020594615 0.0009274781 -0.0009884934 -0.0013355953 -0.001584705 0.000789463 -0.0021118466 0.00045832436 0.001003717 0.0024374465 -0.0013259172 0.0012990359 -0.0014558699 5.063778e-05 -0.0021542355 -0.0016736853 -0.00030829568 -0.0017254835 0.00090695766 0.0016196512 -0.0009983259 0.0015612243 -0.0006055869 -0.00070226874 0.0010748178 -0.0008574186 -0.0006270845 0.0011718195 0.0019678378 -0.001515371 -0.00025700312 -0.0009197639 0.0014885839 2.1550553e-05 -0.0015054996 -0.00114874 -0.00083061436 -0.00044301827 0.00089448056 0.0012101077 0.0010927817 0.0013703472 0.0017346488 -0.0019194556 0.0012594177 -0.0001113742 0.0012337035 -0.0010327385 7.673499e-05 0.0009137248 0.0016814525 0.0002639626 0.0004257621 -0.00018306046 -0.00035397956 0.0020791746 -0.0015385192 0.00013076187 0.00018491576 -0.0008769151 0.0003343974 -0.0003732431 0.0014816998 -0.0013012498 -0.0005575776 -0.0019830205 -0.0018091872 0.0014089153 -0.0002349062 -0.0014880245 0.0016702503 0.0018014228 -0.0019613334 0.0015401685 0.0018732324 -0.001295517 0.000770048 0.000659451 -0.00092750863 0.0018827787 -0.0008088416 0.0009682403 0.0006778751 -0.001460803 0.00098005 -0.0017194294 -0.0007360146 -0.00035422147 -0.0005574918 -0.0014577548 -0.0006275755 0.00023075039 0.00012547684 0.0014600592 0.0011511922 0.0017500452 -0.0017585183 0.0014973913 0.0019398478 4.3497883e-05 -0.0013539717 -0.0011819048 9.129198e-05 -0.00041174114 -0.0022092566 0.002110301 -9.333249e-05 0.00093453896 0.00057551544 0.00048094286 0.0017568608 -0.0005812101 -0.00066594745 -0.0005297065 -0.00031013403 -0.0013046558 -0.0017789231 -0.00034753897 0.001860122 0.0020677997 -0.0010042809 0.00024629914 0.0009555748 -0.0013082572 -0.00014375574 -0.0013700773 -6.9977476e-05 0.0010123978 -0.0010656237 0.00013301034 -0.0010432836 0.0020739804 -0.00038778706 -0.0013762659 0.0022620969 -0.0017046735 -0.0013236377 0.00010487078 -0.0021725888 0.00016289727 -0.00047995866 -0.0010953104 0.0016618571 0.0018241456 0.0019953572 -0.002148472 -0.00043303802 0.001187541 0.0016662913 -0.00036340646 0.00020423264
不 0.0007301467 -0.0011495897 -8.777112e-05 -0.001550051 -0.0020503202 -0.00062961597 -0.0017378356 0.00056210626 -0.0009030656 -0.0019585346 5.290843e-05 0.0017863474 -0.0020210973 0.001024391 -0.0003312278 0.0006842971 -0.0014714175 0.0009208713 -0.0016991597 -0.0016372469 -0.0019959216 -0.000443669 0.0019361855 -0.0014041107 0.00075861986 0.0017766401 1.7519798e-05 0.0013306494 -0.0009936533 0.00040701844 0.0011961161 0.00053668895 0.00020514465 -0.0012039586 -0.0019455121 -0.0022476132 -0.00045447878 -0.0022496036 0.00072660117 5.655233e-05 -0.00025234808 0.0014307228 0.0009196693 0.0013041279 0.0019370358 0.00026349977 0.0018070111 -0.0010396639 0.00066433894 -0.00095106865 0.0022208476 0.000141091 -0.00036229624 -0.0010418349 0.0018912267 0.0010810937 0.0013058046 0.00045196395 -0.0007359845 -0.00070979143 0.00020110382 -0.001762783 0.000615387 -0.001663156 0.0017753508 0.00039306123 -0.001126693 0.00020082394 0.001994106 0.0013168966 0.0011176368 -0.0015064328 -0.0013509151 -0.0018230486 -0.002092815 0.0016734985 0.0006269302 0.0020947042 0.0015949623 -0.00056175946 0.00032651934 -7.5553246e-05 -0.0010880855 -0.00045870934 0.0012459832 0.000543529 -0.002328265 0.0015593901 -0.0022187035 -0.0018160173 -0.0021438692 -0.0014115158 -0.0005455389 0.0009789348 0.0014227245 -0.0012302687 -0.0016459791 0.001111563 -0.00043924202 0.00013654782 -0.0016942526 -4.2501346e-05 0.0012893537 0.0011966684 0.0016381578 -0.0017608035 -0.00011743717 0.0006179489 -0.0017129626 -0.0006403684 -0.0011304565 0.001014151 0.0005780304 -0.0012037735 -0.0020354446 -0.0011284587 -0.0002791348 -0.0021741632 -0.00045314748 -0.00096747046 0.0012468798 0.0020625808 0.0012174768 -0.0015523549 -0.0001807902 0.0001473899 0.0006142306 0.00021935345 0.0010471477 -0.0013795025 0.00065632624 0.000499018 0.0010204446 7.308902e-05 -7.016723e-05 -0.001611438 0.001070184 3.702207e-05 -0.00054412195 0.00015836075 0.0010487346 0.0015995598 -0.0017076958 -0.002041516 -0.002250333 -0.0005718257 0.0008951036 -0.0018106877 0.0012217846 0.0011790517 -0.0022275264 0.0021199116 -0.00046957767 0.0018770591 0.0010927446 -0.000667935 -0.001219526 -0.0014400658 -0.0012436552 -0.001192484 -0.00187349 0.0015151853 -0.001053953 0.002065758 -0.0012505443 7.4793985e-05 -0.0003127797 -0.0015697787 -3.0562784e-05 -0.0010317857 0.002421761 0.0011218778 -0.00093763025 0.0014924987 0.0011418194 -0.0001688874 -0.0022487605 -0.0013053131 0.00093595404 -9.438035e-05 -0.00071144546 -0.001674756 -0.00024198077 -0.0022366273 -0.00013760304 0.0017722512 0.0012015174 -2.2257589e-05 0.0003710686 0.0014590127 0.0016162029 0.00096762093 0.0018824945 -0.0010170804 0.0007276935 -0.0016440739 0.0004865631 -0.0004259958 -0.0016496984 0.0015524925 -0.0019462393 -0.0016189947 0.001461923 -0.00083266816 0.002227862 0.0015312794 -0.0014305058 0.0008383439 -0.00026240153 0.0019118639 0.00014805594 -0.0006476864 0.00096950104 -0.00081558636 -0.00061379984 0.0008071937 -0.00073810614 -0.0008749029 -0.0010262838 0.0015754066 -0.0004907717 -0.0007688231 -0.0013500626 -0.0008851772 -0.0015459626
借 -0.0006053779 0.0013609811 -0.00031147685 0.00039909207 -0.00074755616 -0.0018731123 0.0017092602 0.0016999644 0.0018618825 -0.00041691703 -0.0017910994 0.0008662655 0.0013746737 -0.0009620593 -0.00031049695 -0.0011710732 -2.4349818e-05 0.00092637894 0.0021265857 -0.000506284 -0.0019107128 0.00035104767 0.0003045324 -0.0007092555 0.0022903353 0.0012577242 -0.00044838074 -0.0008928087 0.0018278596 0.001928091 0.001628806 0.0020165923 0.0009699006 0.0018485881 0.0007585403 -0.001047953 0.0016104726 0.0016914654 -0.0017394444 0.00029868216 0.0013261717 0.0015957298 -0.0007241076 -0.0021947373 -0.0010912814 0.0017105881 0.00046624243 -0.0021552916 -2.1162588e-05 -0.002120371 0.0011294513 0.0021870495 -0.0018653317 -0.0013711491 -0.00027450643 0.0018945497 0.00035594357 -0.0013893783 0.002297106 0.001272624 -0.0017032619 -0.0006839329 -0.0011002615 -0.0020855751 0.0019295487 0.001636959 0.00016485048 -0.001363487 0.0018639871 -0.0021320109 -0.00097644655 0.0005152703 0.00055591797 -0.001473232 -0.000119547934 0.0018158464 -0.0016084781 -0.0014235324 0.0018203328 -0.0010620226 0.0019424037 0.001717508 -0.0012398442 0.001987981 0.0013027478 0.00079306413 -0.0007208531 0.0016554719 -0.0012582646 -0.002023671 0.00015550513 9.349218e-05 -0.0007766992 -0.0017094015 -0.0014678288 -0.0023115803 0.0012999814 0.00020000021 0.0013318023 0.0012039922 -0.0019334503 0.000153573 0.0008882061 0.0011259757 0.0017672745 0.0011911403 -0.00015677177 -0.0009286124 0.0008486423 -0.0014406493 0.0012052971 0.0020596154 0.00089228037 -0.00018594092 0.0012543743 0.0015094532 0.0021092235 0.0010767167 -0.00091268687 0.00022915614 -0.0017471208 0.00090498844 0.00033353682 -0.0016792399 -0.0019415674 7.9462996e-05 -0.0016140917 -0.0005281771 -0.001629645 -0.00011592148 -0.0012125723 0.0016914475 -0.0020644232 -0.0011088288 0.00014808301 0.0012624256 0.002043093 0.00039282982 0.00031056264 -0.0007898018 -0.000818875 -0.0023071142 -0.0016484215 -0.00078665215 -0.00094585837 -0.00074564345 -0.0012406938 -0.0009553661 0.0015930034 0.00040901834 0.0014229143 -0.0010822786 0.0013455721 -0.0011012837 0.0013150778 0.0010949677 -0.0005092846 0.0011399041 0.00014271864 -0.0006856695 -0.001200328 0.00079900655 0.000878933 -0.0010945154 0.0021670575 0.0014610834 1.2404223e-05 -0.0018958953 -0.00048872514 -0.0015035575 0.00012632192 0.00079904805 0.0005064074 0.0007197252 -0.0004471468 0.0016319131 -0.0014344172 -0.0010077427 -0.0008870296 -0.0014467404 -0.00032095343 -0.00074593007 -0.0006505976 0.00056179496 -0.0003562292 -0.002207273 -0.0015038137 0.0020545328 -0.0007210419 -0.0020198894 -0.00020082234 -0.0011950216 -0.0009651204 0.00044517708 -0.0009780213 -0.0013311111 3.3725042e-05 -0.000578744 -0.0020939622 -0.0014309337 0.00079133175 -4.345585e-05 0.0008469468 0.00019415117 0.0018648526 -0.00024972885 -0.0016283998 -0.002177098 -0.0006505057 -0.0005453004 0.00036269645 0.0009962199 -0.002204016 -0.0015733448 -0.000634127 -0.00022271319 0.0008193709 0.0008642321 0.0019373036 0.0011000101 0.00088732445 2.3384514e-06 -0.0004940642 -0.0017121088 -0.0005705571
呢 0.0012301283 -0.0001957714 0.0019615968 0.0007298412 -0.0015356401 0.00097197597 -0.00012193221 -0.0011057077 -0.0012101363 -0.0013355355 -0.0011563778 -0.0016766709 -0.0023965926 -0.00028350062 -0.00056219834 6.25933e-05 -0.00073342735 0.002125535 0.00046322565 0.0017154736 -0.0023010424 0.00089838164 -0.00021894003 -0.001178841 0.0013544091 -0.001671391 2.494515e-05 0.0016879793 0.00045930373 0.0014050122 -8.786936e-05 -0.00014248108 -0.0020436463 0.0025083416 -0.002238586 -0.0012077044 -0.0011593363 -0.0018199692 -0.00013311925 -0.00017789083 -0.0014286041 0.0007919835 0.0013408224 0.00097490684 -0.0022199694 -0.0017126543 0.0019204881 0.00041771997 0.0006763765 0.0018428206 0.0022173477 0.002117695 -0.0022659476 -0.001231863 -0.001453669 0.00029311262 0.0010160601 -0.0020200855 -0.0009771128 -0.00090244686 0.00021345771 -0.0011249116 -0.0008791367 0.0024078572 0.0009197144 -0.0014732382 -0.0009580098 7.337414e-05 -0.000901098 0.0012851049 0.0018376245 -0.0017734766 -0.00214092 0.0010959646 -0.00021923854 0.0009498665 0.00035298825 1.1468745e-05 0.00046242564 -0.0014801251 0.00014835593 -0.0008411282 -0.00026714426 -0.0018368388 -0.000374317 0.0016553614 -0.0004366539 0.0013160892 -0.0004699776 0.00057123293 -0.0003430291 -0.00036387745 -0.0009416571 -0.0023019619 0.0001170358 -1.951327e-05 -0.0006956185 0.0020693077 0.00042198264 0.0018601613 5.1302186e-06 0.0012153643 -0.001943563 -0.0016498603 0.0004707098 0.001444151 0.00083803775 0.00035799138 -0.0016041355 -0.0010837707 -0.0022385914 0.0008017966 -0.00046450418 -0.0019578633 0.0013239443 0.00057988934 0.0008573719 0.0014038283 6.6651573e-06 0.0014739117 0.00026337948 0.0020902806 0.0014797896 -0.000222344 0.0027323328 -0.0014778263 -0.0015094898 0.0019955372 0.0007566638 0.0007129903 -0.0010011124 -0.00035760485 -0.0018855571 0.0016588385 0.0005852485 0.0012902791 0.00016922478 0.0016194206 0.0012338838 -0.00036042844 0.0005508352 -0.0019199954 0.0020023559 -0.0014544278 -0.0011469438 -0.0011440201 -0.000107096 -0.00042529145 -0.0021245654 0.0015119023 -0.00041975774 0.00058952795 0.0017949945 -0.00034418306 -0.0010671695 0.0014365193 0.0007658987 -0.0017244291 -0.00014295572 0.00038430456 0.0021185041 -0.0017141986 0.000965001 -0.0012391475 0.0016817371 -0.0010957225 -0.0021208476 0.00064401526 -0.0022947812 0.0018460773 0.00012907697 -0.0008664932 -0.001397433 0.0014691243 0.0020902231 -0.0012608437 0.00026053135 0.0008270765 9.163752e-05 0.00061508425 -0.00055233605 -0.0011226308 0.0021647098 0.001350525 0.0007907396 -0.0014303188 0.0009066547 0.001974438 -0.0023092746 -0.0014386303 0.00069674675 -0.001896104 0.001727847 -0.0016899809 -0.002481168 0.0009858148 0.00088080537 0.0010271716 -0.001583746 0.0013725982 -0.0015412878 0.00022975059 -0.0006352766 0.00028631976 0.00025603618 0.0016940888 -0.0016655428 -0.00071184 0.0023992225 -0.0010275716 -0.0013640362 -0.0014071089 0.001721418 -0.00047941483 -0.0011183361 -0.0014007108 -0.0010234069 -0.0018476179 1.7200677e-05 -0.0016843018 -0.0018241961 -0.0022099947 -0.0008544526 -0.00077601284 0.0014971652
什么 0.0012846701 1.844234e-05 0.00039776866 0.0010880858 0.00024325596 0.0006979051 0.0023442572 -0.0010921975 0.0005314182 0.0018349626 -2.0071434e-06 0.002051944 8.383317e-05 4.1969728e-05 -0.0011436219 -0.00070169696 0.00060947356 -0.00034277388 0.00041206702 -0.00027777164 0.00087259733 -0.0018455648 -0.0006912976 -0.001273435 -0.0013613116 0.0005233295 0.0018238979 0.0016057811 0.0022160655 0.00020171599 -0.0017122013 0.0009802718 -0.0013646077 -0.00026298498 -0.0013518197 0.0020219593 -0.0010900324 0.0004893988 0.0021519144 0.0016780827 0.00054303947 -0.001654914 0.0015846343 0.00055815256 -0.0020239074 0.00059681595 0.00095862406 -0.00024362342 -0.00015275048 -6.6163884e-05 -0.00025676805 -0.0019982737 -0.00070867804 0.00038058506 -0.0020996637 -0.00086401677 -0.002020775 -0.00028151466 -0.0012476062 0.0016955653 0.0014433374 -0.0005923084 -0.0016377872 0.0002917227 -0.001873859 0.001963737 -0.001585892 0.0016285655 6.79374e-05 0.001486829 0.001955044 -0.00076272665 -0.0018129351 0.0012194103 0.0001301679 -0.0001768417 -0.0021919713 -0.0009270499 -0.00064313295 0.0018215514 -0.0011228009 0.00028625692 0.0017346436 -0.00038694468 -0.0013435876 -0.0013852593 -0.0011357296 -0.0012316107 0.0006844741 0.0013228566 -0.0012606536 -0.00042144622 -0.001882998 -0.001806709 -0.0022376138 0.00037373262 0.0011091521 -0.0008671533 -0.0013270227 0.00054018985 0.0004992898 0.0013165529 0.000101132566 0.0020645137 0.0021334854 0.00073992024 -0.0007660189 0.0021341927 0.0015855338 0.00013920625 0.0007477509 0.0011222068 0.0020144721 -0.0007957731 -0.0006243919 0.002167967 0.0021164857 -0.002480319 0.0010540654 -0.0017716433 0.0010405569 0.0014426224 0.0010379184 4.4342523e-05 0.0016267247 -3.4179342e-05 -0.0011576188 0.0013263327 -0.0019242876 0.0014471207 0.000491843 0.0015219004 -0.00015373503 -0.0011181576 -0.0005390423 -0.0021553608 0.0015131342 0.00073112856 0.0012017371 -0.00064012664 -0.0019689957 -0.0004453938 -0.0014885169 0.002118351 0.0004168502 -0.00209401 0.0016208787 0.00014857472 -0.000416441 0.0002648935 0.0015878257 -0.00093813107 -0.000589632 0.00025696284 0.0012977927 -0.001297152 -0.0012110402 -8.194486e-05 0.001201565 -0.0014222346 0.000457976 -0.001573542 -0.0018835381 -0.0012926783 -0.00016246462 -0.0015324375 -0.0015682187 0.00030296794 0.00082247425 0.00072171015 -0.0007597529 0.0020341699 0.00063754915 -0.0015323571 0.0011489217 -0.0005040461 -7.519572e-05 -0.0018024417 -0.0015993983 -0.00057935005 0.0007157235 0.00074247166 -0.0005323406 0.0015929554 -0.0005326497 0.0020662872 0.00082458585 0.00088726904 0.0013329132 0.00023018774 0.0013194218 0.0021651953 0.0019387044 -0.0021377937 -0.0023185597 -0.00085896644 -0.0020887717 -0.0011176214 0.00036168593 -0.002302403 -0.0013149817 -0.00016070725 -0.00012997398 -0.0002699647 0.00073442154 0.0006149929 -0.0002838728 -0.0021233077 0.0007564753 0.0004298984 0.0019103863 -0.0009236396 -0.0004648847 0.00010311528 -0.0010402307 0.0017194996 -0.00019775527 0.0015914688 0.0012780809 -0.001828141 -0.0009961366 -0.0014236046 0.0025457654 -0.00010242219 -0.00066370127
是 -0.00038089376 -0.0006781598 -0.0006310905 -0.0019605104 0.0009059353 -0.0012306247 -0.001079785 -0.0014491214 -0.0021806178 0.0008895607 -0.0017202975 0.0010161046 -0.0017386326 0.00015888238 -0.0012056676 0.0010908346 0.0015887049 -2.5707936e-06 -0.00032851248 0.0017295517 -0.00017690193 -0.0005358409 -0.0021178469 -0.0005884225 0.0021164406 8.858561e-05 0.0003418582 -0.000104636056 0.0010181582 -0.0010205244 0.0018574353 0.0013966563 0.00048558213 0.00026974463 -0.002429268 0.0014558227 -0.00058813154 -0.0024028842 0.0010318084 0.0020841386 0.00080121506 0.0018862011 -0.0016511226 -0.0003753911 -0.0008434853 -0.0019051292 0.0010221001 0.0003427442 0.0018152206 0.0010835519 0.00012630806 0.0018766228 -0.00018122628 -0.00081756717 0.0013567976 -0.0017940647 0.0011039267 0.0010648785 -0.0014313828 -0.00034675107 0.0016914409 0.00065031083 -0.0017516828 -0.0012251657 0.0007146237 0.0011254387 -0.0009045909 0.0018727984 -0.0019093821 -0.0021496704 -0.0008553831 0.00036261257 0.0004329099 -0.0012930193 -0.001298373 0.0009780633 0.00076228596 0.0009901891 -0.0019281677 0.00033520706 0.0021350246 0.0014421423 -0.0013693186 -0.00090055476 0.001212428 0.0010699482 0.0011471814 0.0021993532 0.0016835843 -0.0017348671 -0.0014707755 -2.6715576e-05 0.0011285421 0.0009961596 -0.00029854354 -0.0015798195 -0.00041247485 0.001094366 -0.0006799075 0.0009626577 -0.0022093803 0.00087635336 -0.00045644725 0.0017394748 -0.00080033677 -0.00047322066 -0.0022873578 0.0019045436 -0.00029168202 -0.00093119504 -0.0010997506 -0.0016379049 -0.00083726144 -0.0013495919 -0.0022980908 0.00151744 0.0016816949 -0.0004675303 -0.0017788161 -0.0021155858 -0.0014576531 0.0005878964 -9.2514616e-05 -0.0007074681 -0.00014812335 0.0020182203 -0.0006813845 -0.0005491298 0.000622546 -4.03099e-05 -0.00042122955 -0.0012843736 -0.0018308046 -0.0010353607 -0.0012492553 0.00058086705 -0.0006879712 -0.0008273661 -0.00079947937 0.0008713447 0.0015416503 -0.0014387462 -0.00047552623 0.0018641887 0.00029657973 0.0003427636 -0.001832332 0.0013977496 0.0015556292 0.001840109 -0.00057109527 -0.00037713966 0.0023971861 0.0018273785 -0.00099055 0.0001938152 0.00109912 0.00048029967 -0.0010554132 -0.0009211335 0.0011059307 0.0022145144 0.0020936506 -0.0017109142 -0.00094416214 0.0011768994 -0.0016994711 -0.0016878559 -0.0012347696 -0.0009015473 0.0012288805 -0.000102681704 0.0006642599 0.00037512576 0.00070965517 0.0005405851 -0.001981312 0.0016163659 0.0014572314 -0.0016865912 0.0023780016 0.00075596076 -0.0005424327 -0.002177191 0.0007134613 -0.0018900286 0.001813142 0.00045834045 0.0011738008 -0.0016343956 0.002339758 0.00086700363 -0.00047127556 0.0014488364 -0.0021000556 0.0010642383 -0.00029992795 -0.00084254664 -0.0011856053 -0.0017378991 0.0015593319 0.002126475 -0.0019336103 -0.0022899166 -0.0010990901 -0.0018804115 -0.0014149053 -0.001183631 0.00039940063 -0.00037295322 0.00062942074 0.0009782594 0.0011456517 0.001106769 0.0015597217 -0.0012801739 0.0015215789 -0.0017181514 0.0004833876 0.00086564687 -0.0012042645 0.00043979104 0.0026553008 -0.0009121309 0.0018147348
多少 -0.0013194262 -0.0014303727 -0.0008440663 -0.0015154899 0.0013492337 0.0011484138 0.00057753274 9.671431e-05 -0.0012641435 -0.00092516217 0.00015968681 0.0018877912 0.0007559771 0.0014976519 0.0007742368 -0.0020580732 -0.0020069717 0.0009137782 -8.777826e-05 0.0012144308 -0.0010219901 0.0021877647 -0.00085808075 -6.709408e-05 -0.00040444714 -0.00015016158 0.0016119682 0.00027704798 0.0005017732 0.0009704449 0.0021106247 -0.0015786168 0.000100806916 -0.0014167402 -0.00091275916 -0.0022021069 0.0013460291 0.0012397476 -0.0019809662 -6.592115e-05 -0.0008435711 -0.0004641429 0.0013125793 -0.001186162 -0.0014493386 0.0017470586 -0.0004975358 0.0009125922 -0.0020381876 -0.0014053752 0.0022143393 0.0016875846 0.00097242754 -0.0013291949 -0.0018406245 -0.0005305899 -0.00012745992 -0.00039177146 0.0021230942 -0.0019435144 0.001245839 -0.0006261896 0.0018327228 -0.0008024998 0.0016966794 0.0015768406 0.0016347724 -0.00086671754 0.0007627305 0.0021794557 0.0002726152 -0.0018685359 0.0012966273 -0.00054457074 -0.001336199 0.00043744623 -0.00053106295 0.0018021063 0.0011717548 0.0011444006 -0.0012621506 0.00063658954 0.0010157626 0.0020464214 4.9322654e-05 -0.00036563267 0.0020026735 0.0018027137 -0.0014240476 0.0018144961 -0.0007274026 -0.0018884909 -0.0007900647 0.00020963095 -4.463216e-05 0.00062315963 0.0013151305 -0.0006716174 0.002320589 0.0021123488 -0.0014274351 0.0017686808 -0.0010096827 0.0013402826 -0.0018158596 -0.0020970814 -0.002195565 0.00084083545 0.0012868753 5.3884723e-05 0.0018537479 0.0009638201 -0.0012393075 -0.0022300612 0.00021974486 -0.0013764325 0.0005934621 0.000313 -0.0012044987 0.0010354377 -0.0005958886 0.0011417944 0.0020601237 0.0019435398 0.0019177666 0.000549301 -0.0012609175 0.0007798297 0.0011232084 0.0008410211 -0.0021199812 0.0020309354 -0.0017056667 0.001416386 -0.00058344926 0.0019707277 0.0014460125 -0.002068688 0.0007349404 -0.0020865006 -0.00013546637 0.0012288648 -0.000235519 0.000735155 -0.0015746844 0.0005548186 -0.0009538871 -0.00091869617 0.00022192714 -0.0006278718 -0.0010870097 -1.4203036e-05 -0.0010842404 -0.0017531303 0.00082986406 -0.0018057884 0.0020561856 0.0019320385 0.00095630577 6.9110894e-05 0.0010400029 0.00072201586 -0.00038763077 -0.0008423082 0.0019281139 0.0005928434 -4.1832987e-05 0.00033547965 -0.0010395233 -0.0017389271 0.0017762003 0.0006020453 -0.0017603176 -0.0018596721 0.0015467404 0.00048507293 0.0005599518 -0.0007278557 -0.0005497206 -4.0182484e-05 -0.0012072604 0.0012936523 0.00045659146 0.00043261694 0.0021075725 0.00057368557 0.00050888857 -0.0012462036 -0.00094885414 -0.0022149077 -0.00017015381 0.00070022425 -0.0014769367 -0.0017554159 -0.0019660427 -0.0009548368 -0.00055581 6.957102e-05 -0.0014360964 -0.0012697015 0.00051092764 0.0018213417 0.0009827126 -0.00090312597 -0.0012325932 -0.00058659323 0.0003751749 0.0012573786 0.0015806507 -0.0012659926 -0.0019989964 -0.0007122498 0.00051816326 -0.0013049903 -0.0012690409 0.0009212062 -0.00043017245 -0.0014575936 -0.0015820881 0.00041977112 -0.0014363861 0.00014707475 -0.001449573 -0.00039935837 0.0011046522
开通 0.002136954 -0.001941314 0.00037639643 -0.0013895552 -0.0022479508 0.0015726518 0.00035721826 0.0014026142 3.105214e-05 0.00050027645 -0.0011108826 0.0019712865 0.00079601014 -0.0021754077 0.001122043 -0.0005825223 -0.00088894676 -0.0008777149 -0.0006797387 0.0016656904 -0.0010569933 0.0012638448 -0.0009473323 -0.0010448365 0.0004401103 0.0017726923 0.0020955044 0.00039049424 -0.00058775087 -8.185943e-06 -0.0005521856 0.001892497 0.0006498433 -0.0005305278 -0.0021843873 0.0005095404 -0.0017452409 0.0006232305 -0.0008716023 0.0015328419 0.0012284183 -0.001522023 -0.0021664842 -2.0493824e-06 0.0010132475 0.00047328087 0.00037269644 -0.00023749137 -0.00040406658 -0.0020963037 0.0011702831 0.00034659635 -0.0020881589 0.0013981643 0.0011170381 0.00013395323 0.0008847241 -0.00074926653 0.0020063294 0.0017291391 -0.0013395273 0.0019091916 0.00022682022 0.0012890303 -0.0012128322 -0.0007073415 -0.0014832113 -0.0019388297 0.00084144477 -0.0016077608 0.0014151215 0.00035623388 -0.0007417718 -9.133131e-05 -0.00041382542 0.0015689683 0.00018874365 -0.0010101831 0.0021702105 -0.0020017584 -0.0010029668 0.0005457848 0.0010913532 0.001571624 -0.0020468368 -0.0012149125 0.0016936547 -0.0018611822 -3.980373e-05 -0.0018553094 -0.00067578733 -0.00082263467 0.00083362515 -0.00142942 0.0012490221 -0.00084859837 -0.0012429188 -0.0007146127 -0.0006102657 0.0008745917 0.00021301206 -0.00030113143 0.0018887226 0.0022071407 -0.000756081 0.0006412858 0.0003064385 0.002175404 -0.0016967866 0.0019737913 0.00038923527 0.0009615485 0.0008069852 0.00028784486 0.00066160486 0.0020823572 -0.000630929 -0.0011984245 0.0013284654 -0.0017485177 -0.0018576799 -0.00012874632 0.0008218276 0.0013898894 -0.002006238 0.002209579 0.0015423095 0.0013064978 0.001101968 0.0021632346 -0.0003435427 0.0008253854 -0.0003510087 -0.00028238105 0.0018925844 0.0006474076 -0.0018568902 0.00016588964 -0.0009455306 -0.0020797553 -0.0020127571 1.8367457e-05 0.00039794718 -0.0001573911 -0.0010002333 -0.0015719156 -0.00038307311 0.0010654927 0.0010927267 -0.0014410989 -0.0016095154 0.00058732386 -0.0013418016 -0.0016163159 -0.0014010939 0.0003495767 -0.00042037823 -0.0003964772 0.0012597375 -5.2329393e-05 0.001044701 -0.001526271 0.0015207152 -0.001301547 -0.0011648871 0.000531696 0.0004599149 0.0016009912 0.0004342157 0.001992072 0.0020427026 0.0006504887 -0.0014634631 -0.0001602779 0.00054106617 0.001500829 -0.00085465057 0.00032363832 0.00045004324 -0.0005453163 -0.00023288626 -0.002210983 -0.00017569907 -0.0010903736 0.0013385167 -0.0014260126 0.001448277 0.00088684977 -0.0013893459 0.0011107727 -0.0019400547 0.0014282521 0.0021228313 -0.0003666175 6.474241e-05 -0.0006563397 0.0012207056 -0.0011566037 0.00039495467 -0.0005477372 0.0012212299 0.002110027 -0.0015392626 0.0015251565 -0.0013450056 0.0009847936 0.00056569977 0.0021118345 -0.0017821959 0.001741047 -2.8727303e-05 -0.000775781 -0.0005774174 -0.00010873497 -0.0017017177 0.0020589826 0.0008286704 0.00040135407 -0.0006064888 0.0008124329 -0.0010312967 0.00016736488 -0.000296523 -0.00081639463 -0.0005893307
额度 -0.002007088 0.002083337 0.00048450846 -0.0014216548 -0.00024492378 -0.00033469358 0.0012015989 -0.0022852544 -0.00047041138 0.0016845816 -0.0017808033 -0.00047420975 -0.0014204438 0.0006030021 -0.0015088841 0.0007044019 -0.0006947207 0.0004249335 0.0008319485 -0.0018657428 0.00030408576 -0.0011229292 -0.00097523164 -0.001367622 0.0011987583 0.0014031532 0.0017504321 -0.00126125 -0.0018641001 -0.0005562677 0.00046942534 -0.001480462 0.0016958632 0.0004255748 -0.0003946594 0.0021745628 -0.0013815176 -0.0015732127 0.0021344488 0.0016466164 0.0006220995 0.0022752085 0.0015266325 0.00055609696 -0.0019523221 0.0021092577 0.0009010241 -0.0019161262 0.0006801607 0.0009994535 -0.0021677432 -5.129994e-05 0.0010640087 -0.0009130922 0.0014239232 0.0020652162 -0.0021369508 0.0020372816 0.0019225893 0.00054567226 0.0018226132 -7.826968e-05 0.00038742888 -0.001500847 0.0010453444 -0.0014174789 -0.00064523256 -0.0021323473 -0.00067866675 -0.0019851187 -0.0010960407 0.002077025 -0.0006575683 -0.0020898087 0.002104816 0.00018209979 0.000683752 -0.00035466472 0.0012896328 -0.0010723359 -0.0017428972 -0.00033418782 -0.0009897185 0.00074712385 0.0013655283 -0.0006479467 -0.001226098 0.00067405344 -0.0011325649 0.0002568464 0.001920841 0.0002192117 0.0020562618 -0.00059979974 0.0003833383 0.00015143566 -0.0014855185 -0.0010859433 -0.0005076657 -0.0014137871 -0.0018756614 -0.0019836084 -0.0013475087 -0.0014704816 -0.00017881094 0.000555737 -0.0017875021 -0.0018520075 -0.0019422837 -0.0004341471 0.0002560991 0.0021400226 0.00033986484 -0.0007852715 0.0007621495 0.00024276046 -0.0009343238 -0.0015040691 -0.00045511994 0.0006792047 0.0003931247 0.0016523661 -2.8071314e-05 -0.0011511212 -0.0015451798 0.0004193886 0.0013287113 -0.00100926 0.0019674867 -0.00097496243 0.0011030185 -0.0012034382 0.0016464938 0.000121248966 0.0015302467 -0.0007793023 -0.000723538 -0.0019577632 -0.0007847966 -0.00063643476 0.0012804049 -0.0014515341 -0.0014374272 0.0006242972 -0.00073115533 0.0001440017 -0.0018624 0.0007299205 0.001553981 -0.0012777769 -0.0017796184 -0.0014986861 -0.0017951616 0.0008501245 0.002340026 -0.0005260246 -0.0015138494 0.0005078942 -0.0008771536 -0.0016207934 0.0016258459 -0.00018494185 0.001283563 0.0013789245 0.0015660039 -0.00047177947 -0.0021321385 -0.0017990675 0.00068215403 -0.0020056136 0.0010516002 -0.001216861 0.00012053736 -0.0014261437 0.0022350168 0.0016473844 -0.00034053237 -0.001966703 0.00078140193 0.0010759946 0.0016616789 -0.000115110306 0.0014884579 0.0004384663 0.0013607766 -0.00045417188 0.0012729659 -0.0014339028 0.00050780113 0.0008010249 0.0011457016 0.0017848306 0.0010918992 0.0007721942 0.0006047128 0.0018396113 -0.00053563283 0.0011265244 0.00035750412 -0.0005899116 -0.0011541152 0.00074365106 -3.1903957e-05 0.0008021911 0.00020695361 -0.0003914362 -0.0018767554 0.00018409188 -0.0005716232 0.0020849318 0.0021012465 0.0005515211 -0.0021687918 0.0002308014 -0.00011113027 0.0005093543 -0.0010013835 -0.0016423081 0.0007501732 -0.0013715717 0.00025335842 -0.00026287464 -0.0012750037 0.0010810752 0.0012723288
会 0.0011106245 -0.001374182 -0.00035278717 -0.0010768208 0.0016268418 0.0009571987 0.0021070356 -0.0015858882 -0.0013452525 0.0006873985 0.00039878098 0.00061912695 -0.0024139208 -0.0017632557 -0.00036412707 0.0014882269 -0.00078725925 0.0021293934 0.0021909238 -0.0013806397 -0.0022277308 -0.0020923498 -0.0001040054 -0.0022052217 -0.00047524445 0.0007360407 -0.0016356313 -0.0016730801 -0.0009790715 -0.00016346849 0.0007510889 0.0018666028 -0.00086953584 -0.0018261625 1.4658465e-06 -0.0018372699 -0.000911827 0.0016517171 -0.0016141541 -0.0010961188 -0.0009972318 0.00226785 0.0002540321 0.00044726997 -0.00050830573 0.0020594194 0.0013517027 -0.0013095619 -0.0011677508 -0.0022194143 -0.0014047602 -0.0012101814 -0.00198647 0.0014032997 -0.0008093636 -0.0009717647 0.0020935347 0.0017401243 0.0009002858 0.00013565432 0.0018890528 0.0018714553 -0.0010247354 -0.0001878272 -0.0019300855 -0.000909313 -0.00039735035 0.00088258134 -0.0017594973 -0.0007918596 0.0019314775 0.0019130871 -0.0010304368 -0.0022017693 -0.00020929269 0.0022621504 0.00094878284 0.0011872128 0.0002730906 -0.001886107 0.00036070182 0.0016916117 -0.0017252909 0.00028437615 -0.0005843729 0.0016346219 0.0011155263 -0.0004417441 -0.00040403736 -0.002315695 -0.0017650374 0.0021369932 0.0022893357 0.00073115114 0.0019895793 0.00037524334 -0.0013758874 -0.0010479832 0.001540636 -0.0010412877 -0.00010776171 -0.00092407566 -0.0007683471 -0.00021594486 0.00018549233 -0.00035857977 0.0002303652 -0.0016002555 0.0019490668 -0.0018049929 0.0012320742 0.0017824854 0.00020357555 -0.001723218 -0.0014147495 -0.0003798029 0.00050504535 0.0003148169 -0.0011029408 -0.00073645357 0.00014329737 -0.0004919824 0.001044661 0.0009116445 0.0017416573 8.595034e-05 -0.0020568727 -0.0022997211 0.0012360029 -0.00041465348 -0.0003557867 0.0019195126 -0.0017049875 -0.00017498506 0.0022166981 0.0022254104 -0.00092038634 -0.000632837 -0.002124459 -0.00080821733 -0.0005154237 -0.0021457786 0.0013667768 -0.0020037359 -0.00032586997 -0.0005734445 0.00072917185 -0.00086478866 4.7253474e-05 -4.5731253e-05 -0.0013353612 0.0014607249 0.0005593347 0.0009487666 -0.00044851712 -0.0020297004 -0.0021795668 -0.00096381 -0.001806042 0.001777802 -0.0018548657 -0.0017597814 0.0017215696 0.0016587453 0.0021737027 -0.00044593017 -0.0005150403 -3.8948125e-05 0.00058126135 3.082696e-05 -0.0008797746 -0.0011733446 0.0004083414 0.0011017813 -0.00074139744 0.0013694095 -0.0012832124 0.00035667076 0.0010642533 0.0019026 -0.00090988225 0.0018404371 -6.0809383e-05 0.0012035408 0.0009084098 0.0011400328 0.0011104987 -4.8561076e-05 0.0013613905 0.001550041 0.0011595908 -0.0013716811 0.00154724 -0.00052625913 -0.00025295865 -0.0010572665 0.0012254168 -0.00014286573 -0.00012592865 -0.0020493993 -0.0018936588 -0.001222569 -0.0014114131 -0.0011307866 -0.0015346784 0.0008978825 0.0012324721 0.0015489279 -0.0005641275 1.29862765e-05 -9.293533e-05 -0.0003786597 0.0011722541 -0.00053242967 0.0011279429 0.0006052005 -0.0016292527 -5.6532368e-05 0.00043059845 -0.0012340127 -0.00012910794 -0.0018911812 -0.0005353249 -0.0015048364 0.0014080273
时候 -0.00068003905 -0.0022176122 -0.0012785904 -0.0013247248 -0.0019053203 -0.00117278 -0.0019709887 -0.0010399307 0.0016674154 0.0004924039 -0.001783182 0.0021517156 0.0013036435 -0.0023238808 -0.000893711 0.0006739037 0.0016997006 0.0011484476 0.0021758522 -0.00019964037 0.000631383 -0.0014648028 9.6135016e-05 -0.0004871565 -0.0005843534 0.0018804088 -0.0011406458 0.0015612943 0.0015548151 -0.0017660974 -0.0018592527 -0.0016008125 -0.00052340305 0.0012138835 0.0013729569 0.0021048654 0.00041843834 -0.0011779733 -0.0003497194 0.00023419327 -9.768475e-05 -0.00039783237 0.00057187583 -0.0017807019 -0.001681361 -0.00017223967 0.002071203 -0.00017979523 -0.0011525783 -0.0010056332 -0.0009598968 -0.001728561 -0.0010611395 -0.0004633715 0.0006939666 0.00049002445 0.0021634693 0.002005094 -0.00022442594 0.0010775919 -0.00042982932 -0.000608145 -0.0009244729 0.0020837667 0.00058915635 -0.0012041264 -0.0025014016 -0.0016359924 0.0005468034 0.00068575854 0.0007075256 -0.0004402344 0.0014286413 -0.0010066446 0.0014765605 0.0020611533 0.0004213298 0.0003529731 -0.0013923476 -0.0018730795 -0.0014004663 0.00023221267 -0.0009264167 -0.00041783412 -0.0009706715 0.0013473209 0.00040738395 0.00023306702 0.0002784959 -0.0012640274 0.0012243201 -0.00059849356 0.0009746694 0.00023927816 -0.00018057768 -0.0020695252 -0.0019086282 -0.0021239836 0.0018354985 -0.00018178894 -0.0012021516 0.0019653807 0.001542337 0.0003216554 0.0008263941 -0.0011572882 -0.0017036567 0.00091662427 0.0011936217 -5.3759122e-05 0.00058817636 0.0014500542 0.0014337208 -5.059557e-05 0.0015260577 0.0011323066 0.0013354358 -0.0020448044 -0.0008473391 0.0008618036 0.0008581863 -0.001631406 0.0010590004 -0.00059308077 0.0017267269 -0.0020968688 0.0011403182 -0.0011782855 -0.0020987573 0.0005726576 0.0011498554 0.0020888483 -0.0013249295 0.002034113 0.0018789954 -0.0015347397 -0.00011067443 -0.00079489354 0.0008325634 0.00052663794 0.00021411898 -0.0010800522 0.0015401412 0.00082594587 -0.00070303126 0.00010119098 0.0002627981 -0.00032622623 -0.0022430723 -0.0019260817 -0.0001612547 0.0016540233 0.0004405552 0.0023768377 -0.0006960499 -0.0021803388 0.00025633152 -0.0001076887 0.0020529085 -0.0018383829 -3.426697e-05 -0.0005078008 0.0008863473 -0.0016014809 0.0010636311 0.002117267 -0.002194889 -0.00085945445 0.0010109689 -0.0021997492 -7.546231e-05 -0.0018456051 0.0008794625 -0.0010965826 0.0023024115 0.0017557583 0.00040980164 0.00035304803 0.00035739408 0.0014047688 -0.00048554462 -0.00021686764 -0.00080358924 -0.0021163123 0.0005605129 0.002041089 0.0009000014 -0.0018773745 0.0002338236 0.0012312334 -0.0011878904 0.0019301034 -2.4309025e-05 -0.0005889152 -0.0024109837 0.0011600611 -0.001453363 0.0017399685 -0.0016773668 0.0008465671 -0.00014725723 -0.0015750234 0.0004010131 0.0018979349 0.0009618522 -7.728409e-05 0.00011841976 -0.0017798335 0.0013956238 -0.0003918863 -0.0004264442 0.0014497985 0.0015018692 -0.0005610625 -0.00039923395 0.00051308994 0.0016723156 -0.0020081438 -0.00061763654 0.0009239439 -0.0014857255 0.00020537559 0.0014093138 3.7463422e-05 0.0011918541
电话 0.00077117246 0.00046832653 -0.00040113454 -0.0007227981 -0.0006335815 0.00058739656 -0.00026117294 -0.0011493877 0.0021810816 -0.00033063008 0.0020004024 -0.00011232865 0.00053238275 0.00079362065 0.0016728431 -0.0012027299 0.0010658482 -0.00081022206 -2.6619327e-05 -0.0012965009 -0.00023704789 0.0007665253 4.4301043e-05 -0.0005424963 -0.0020323012 -0.0008424999 0.0002918106 -9.446631e-05 0.0022479608 -0.0018113329 0.00073978025 -0.0018525058 -0.0011526768 0.0024832073 -0.000594041 0.0017481534 0.0006249987 -0.0010475947 -0.0018430752 0.00013185838 -0.0005647847 0.0019540098 0.0018849261 -0.0018428577 0.0011076377 -0.00046334325 0.0008220267 0.0005821097 0.00026264734 -0.0021062484 -0.0013178514 0.0016413232 -0.0018430137 0.0019994322 -0.0020302227 0.001938667 0.0008704055 -0.0015400421 -0.0017537588 0.0009443014 0.001069311 0.0013830202 0.0020891735 0.0018356999 0.0007461175 0.0013384195 -0.001598478 -0.0021840415 -0.0018194983 0.0010184672 -0.00093151914 0.00020971533 -0.00030351157 0.0012262134 0.0019121451 -0.0020012069 -0.0006227127 -0.0017926841 0.0012834242 -0.0017188182 -3.9415092e-05 -0.00018319095 -0.00016378718 0.00036854105 0.00020424109 0.00041155482 -0.0012331939 -0.0010645635 0.0004910675 -0.0005716882 0.0019140143 -0.00085564365 0.0019922906 -0.0023052178 0.0014543141 -0.00065798016 0.0002359685 -0.001563772 0.0016169643 -0.0005983 0.0010387793 0.0013614489 0.0005058514 -0.0017273584 0.0013851423 0.0017152344 0.0019858829 -9.766713e-05 -5.0817074e-05 0.0016836898 -0.0007033483 0.0015596993 0.0008980825 0.0014896079 -0.0019054839 0.0013139247 0.0009180055 -0.0022835184 0.0005676142 0.002061667 1.9929445e-05 0.0021744359 -0.00012751186 -0.0005265608 0.0020991664 -0.002093353 0.0015696348 0.0012204344 -0.0006441432 0.0011123315 7.990468e-05 -0.0018687873 -0.0014540713 0.00039497358 0.00096908945 -0.00025344215 -0.0020594157 0.001227938 0.00038342347 0.0011043436 0.0016443629 0.0018058276 -0.0003452304 0.0009925757 -0.00093734247 -0.0020714544 0.0014068129 0.0017041083 -0.00047445358 -0.00038682474 -0.001519715 -0.00039389514 0.0004881545 -0.001214546 -0.0010327484 -0.0018913393 0.0013421854 0.00088228186 0.001734943 -0.0008576203 0.001833828 0.0010524895 0.0021578667 -0.0017125277 0.0019795662 0.0017648351 -0.0020927573 -0.0018251503 -0.0009555077 0.0007340523 0.00072950183 0.0017813444 0.0012891865 0.0014614221 0.00090508105 -0.002001923 1.6906357e-05 0.0007135734 -0.0020179441 -0.00023041046 -0.001061894 -0.0018382696 0.0003220486 0.0016138897 0.00051162834 -0.0017250926 -0.002078033 0.0020374174 0.00048462718 0.0015778651 0.002152185 -0.0014713899 0.0009048528 0.0017582747 0.0012261749 0.0019529386 0.0013929717 0.0013797675 -0.0015737587 -0.0015431811 -0.00026633323 -0.0016917387 -0.00025593973 -0.0017155878 -0.0011847443 -0.0017442482 -0.0012026418 0.00067563134 0.00049817347 0.0016099929 -0.00027779303 0.00018443033 -0.0013080912 0.0017012755 -0.001450387 -0.0006158709 0.0012747643 -0.001237016 0.0012028607 -0.00020690245 -0.00018135765 -0.0014004727 0.0016037383 -0.0018090131 -0.0008697602
今天 -0.0019285725 -0.0012731191 0.0011750428 -0.0025374696 -0.0012347036 -0.0022650512 0.0022759133 -0.0023266876 0.0010658839 -2.9770761e-05 -0.0017112999 0.0019413426 -6.127115e-05 6.4567364e-05 0.00011632105 0.0011495752 -0.001091416 -0.0015922803 -0.00080363994 0.0018950001 0.00041950578 0.002060652 0.0013757236 0.0020443785 0.0015374598 -0.0016499833 0.0018200368 -0.0012315956 0.0012200833 0.0014856295 -0.0006852707 -0.0014831742 0.0018835831 0.000753685 -0.0012972306 7.475363e-05 0.0007223843 -0.0022147992 0.0011155203 -0.00033247078 -0.0002897332 0.00029253843 -0.0019304933 0.00096128177 0.00057005475 -0.001794212 -0.0008915218 0.0022143456 -0.0020620541 -0.0012644613 -0.00045375878 0.0018958568 -0.0017494714 -0.0012164261 -0.00067965523 0.0015939738 0.00012424277 -0.0003879702 -0.0004267676 -0.0019616012 0.0013990719 -0.0002295358 4.629365e-05 0.00041475552 0.002298383 -0.0010816043 0.0009416903 0.0018572528 -0.0018115089 0.0013408744 -0.0016209312 0.0017360996 -0.001661574 -0.001294888 -0.0010298312 0.00035391402 1.283659e-06 3.938406e-05 0.000794383 0.001446167 -0.0022399735 -0.0012374864 0.00014541947 -6.0150807e-05 0.00042987146 -0.00135699 -0.0021040253 0.0020646926 0.0011674102 -0.001359042 0.00022736538 0.00084265217 -9.592531e-05 -0.0015622688 -0.0016137026 -0.002137655 -0.0012311036 -0.001315708 0.00020468819 -0.0015123431 -0.0018965001 0.0011802121 -0.00210638 0.0007645058 0.00228718 0.00065490435 -0.0008277449 -6.3029215e-06 -0.0018880899 0.0005155413 -0.0019217151 0.00079725584 -0.0004357317 0.0012676548 0.0018670392 0.0021629313 0.0022751787 -0.0007844849 -0.00028396165 -0.0011771171 -0.0022349213 -0.00038163693 -0.0005546178 -0.0014489872 0.0022649441 0.00077829574 0.002012563 -0.0020443078 -0.00036622808 0.0021013168 -0.0023828808 0.0016419325 0.0019391057 -0.001689913 -0.0011493469 -0.00078103394 -0.00078184024 0.00019387486 0.00069458835 0.001965867 0.0008339082 -0.0022002547 0.0018295735 0.0011163314 -0.00030843078 -0.0021329834 0.0017409099 0.0006826511 0.0010270952 4.0680028e-05 0.00090687285 -0.0010838326 0.0017898263 -0.0019004723 0.0007803224 0.0012242316 0.001886294 -0.001782907 0.0019009998 -0.0022194579 0.00022250414 -0.0015539513 -0.0012777451 0.00019209151 -0.0013672893 0.0011565185 0.0017499351 -0.0010086366 -0.00010484504 -0.0019280756 0.00094662426 -0.001895184 -0.0022424127 -0.0013636557 0.0013993583 -0.00017038571 -0.00085391256 -0.0012820996 -0.001079175 0.0007728109 0.00041192406 0.0017800691 0.00037160312 6.510139e-06 -0.0015551685 -0.00010572835 -0.001944538 0.0017502375 0.0016038498 -6.1676365e-05 0.0016526273 0.0013313037 -0.0014482619 0.0013781609 -9.217164e-05 -0.0022272621 -7.886669e-05 0.0020834506 0.0010227826 -8.6452485e-05 0.00063495466 0.0002546707 0.00015958156 0.00033247462 -0.0012557467 0.0018314054 -0.0008170525 0.00015939781 -0.0010801356 0.0013062197 -0.0005275573 0.0017004599 -0.0013101773 -0.0012041647 0.00023386517 -0.00021938131 0.002044283 0.0018209711 0.0011136832 0.0012646003 0.0006733073 0.00021716171 -4.8924907e-05 -0.0011760162 -0.00017017328
有 -0.0018813296 -0.0014654015 -0.0009394851 0.0016266692 -0.00076437404 -0.001979602 -0.00045838454 0.0011657744 4.0723524e-05 0.0010127622 -0.00018029302 0.00081804104 0.00020459005 -0.0012016146 0.001392444 0.00083451736 -0.002188186 7.868572e-05 0.0002277681 -0.0015726041 -0.0021106205 0.0014294245 -0.0006445965 -0.0020686644 0.00230104 1.785127e-05 -5.2981053e-05 -0.001743265 -0.0006401402 -0.0007732016 0.0024045259 0.0016005717 -0.00186309 0.0015633999 4.2039497e-05 0.0012167869 -0.00024646553 -0.00031866215 0.00034012954 -0.0005298161 -0.001434558 -0.00051474135 -0.00013628852 -0.0018765222 -0.0020909277 -0.0002927877 -0.0006815986 0.00068931095 -0.0015736648 -0.0006483321 0.00015120527 -0.00014647047 0.00020877692 -0.0013087774 -0.0008783442 -0.00032464342 0.00057121424 0.0013353224 0.0015084267 -0.0017685111 -0.00042414392 0.0018981084 -0.00077884295 0.0019484509 -0.000439537 -0.0008092401 -0.0012101397 -0.0007710857 0.000119075215 -0.00146691 -0.0012049526 -0.0005035089 -0.0005828871 -0.00082833105 -0.0014849703 -0.0005919574 0.0009196115 -0.00083945325 7.668868e-05 0.00066906033 -0.0010900054 -0.0014262922 -0.0019248817 0.0020565402 0.0010386178 -0.002034396 0.0014579535 0.00082287204 -0.0012184301 -0.0019054302 0.0021431348 0.0014916197 -0.0009629421 0.001913397 0.00085242593 -0.0006029644 -0.0006834456 -0.0015908945 0.0009569892 -0.0015698336 -2.032048e-05 -0.0019907772 -0.00023162265 0.0016208348 0.0007902886 0.00073982537 -0.0017186416 -0.0007187221 -0.0013570116 -0.001341726 -0.0016492103 -0.00045106612 0.00081325346 -0.0021688722 0.00068873016 -0.0016003771 0.0014942653 -0.0011178282 0.00053153676 0.0005089426 0.0017518828 -0.0015935117 -0.0015697366 0.0010615634 0.002148476 -0.00041247034 -0.0018858981 -0.0001063754 -0.0001272541 -0.00043427438 0.00059743354 3.5415876e-05 0.0014612206 -0.0008548186 0.00086545665 0.0014498284 0.0005883983 -0.0008708929 -0.0015922744 0.00064134394 -0.0020647706 -0.0022173023 0.0005468191 0.000111254936 -0.00034283596 -0.0005228946 0.0002076388 -0.0010240825 -1.0824411e-05 0.0010758248 1.1013253e-05 0.0013256018 0.0005088808 0.0016566659 -0.001355604 0.0019260901 -0.001906084 8.3426225e-05 0.0018803794 0.000729588 0.001048693 0.00038015796 0.0020671438 -0.0023043028 0.0018247669 0.0011247738 0.0014861771 0.0020951354 0.0005249086 0.000547538 -0.0005650008 0.0013803403 0.0013779318 0.0014562173 -0.0004922745 1.5951784e-05 -0.0016838878 0.001299926 -0.001117344 -0.0013970003 -0.0017408663 -0.0010259264 -9.773316e-05 -0.0009147631 -0.00018293523 0.0008649952 -0.001248571 -0.0015187515 -0.00044342998 -0.0020187527 -0.001713114 0.001290956 -0.0021391995 0.002156918 0.0012698744 0.000164655 0.0006369086 -0.0012924827 0.0014913222 3.6590107e-05 0.0014763352 -0.0018653458 0.00010836172 -0.0011682144 -0.00039836214 -0.0003883771 0.0016600917 -0.0015365324 -0.0017759921 -0.0016949534 -0.0007147296 -0.0011254236 -8.683833e-05 -0.00058460317 -0.00063942524 -0.0005805551 -0.0019665954 -0.0014104019 0.0019431886 -0.0012379988 0.0009268494 0.002115978 0.0018865236 0.0020708146 0.0016015831
能 -0.0012105467 0.0013904086 -0.00022292558 -0.0009429453 -0.00069694023 0.0001325183 0.0019618485 -0.00033943006 -0.0011703924 -0.001987407 -0.0008183048 0.0019902468 0.0014872738 -0.0019935311 0.0010668344 0.0015881622 0.0013379686 0.00012365368 0.0012318728 0.0018457928 -0.0010999026 -0.0014987971 0.0010655203 0.001120001 -0.0014849331 -2.410156e-05 0.0021813107 0.0016237332 -0.00081590057 0.00160312 0.0003373822 -0.00024545216 0.0018125388 0.0010644381 -0.001643083 0.0021852567 -0.0012128447 -0.0020765425 0.00045716096 0.0006718889 0.001266211 0.0016760003 0.0018967027 -0.0012757105 0.0011335273 -0.00012236352 0.0019120914 -0.0016021908 -0.00037322388 0.0020536233 -0.0005216929 0.0020767576 -0.00060408015 -0.0014892671 -0.00043252797 0.0018030619 -0.0010941272 0.00088466477 -0.000103867176 -0.00028056843 -0.0006635506 -0.0006714562 -0.0005929442 -0.0014481657 -0.0018265131 0.0005095483 0.000159776 1.663805e-05 -0.0008263316 2.4339544e-05 0.00045684676 -0.0009236478 -0.0015303282 -0.0010160707 -5.7064666e-05 -0.00010502668 0.0021313238 0.001400293 0.0018493915 -0.0005729058 0.001831213 -0.0016127616 0.0011620312 0.0005362871 -0.0011790463 -0.00040826952 0.0016495212 0.0019182556 -0.00068129244 0.00015602088 -0.0005379768 0.00019657887 -0.0014777585 0.0020573519 -0.0013594814 -0.002262959 0.0017936195 -0.0018285174 0.0003158957 -0.00020664043 0.0011666646 0.00090303685 -0.0023058325 0.0018054405 0.0015515952 -0.001085377 0.000690344 -0.00046359075 0.0015720888 -0.0011565386 -0.002278134 -0.0018794993 0.00012155785 0.0009047572 -5.480533e-05 -0.000506387 0.0018311763 -0.0024545388 0.0020843737 0.0011864242 0.0021498126 -0.0018048387 0.002080072 0.0019290847 0.0022941383 0.0018691691 0.00064892485 0.0003489962 -0.0015541705 0.0022286235 -0.00029517128 0.0022025048 0.0014510361 0.0014803391 0.0012164471 0.00023873517 0.0013943632 0.00041193742 -0.00077661464 -0.0017405394 0.0008905847 0.0019162912 0.0022604642 0.00013478949 -0.0016962332 -0.00031664796 0.00016207037 0.001992265 0.0017332678 0.0021756429 -0.00029284312 0.000922438 0.00097400806 -0.0016811395 0.0017115799 -0.0014467336 -0.0018396367 -0.0005064598 0.0014495812 0.0019370671 0.0018140875 0.0023298988 -0.00077072403 0.000942009 -0.00055848056 0.0016729033 0.0012802087 0.0006947382 0.0018244961 0.0015836904 0.001275809 -3.3121807e-05 -0.0009464935 -0.0011401947 -0.0009018921 0.00014637089 -0.00082154595 0.00012360976 0.000685966 0.0009638187 0.0008628037 -1.920633e-05 0.0019822617 0.0008426535 6.192053e-05 0.0009715312 0.0022380857 -0.0009755786 -0.0011251929 0.0021044088 0.0014120236 -0.0011276273 -0.0015246443 -0.00202771 0.00053898676 -0.00021584629 -0.0013526523 -0.0005307235 -0.0017946333 0.00036455324 0.00043399195 0.0010719842 -0.0012816266 -0.00094912143 0.0018836958 -0.0013180296 0.0006477734 0.0017096812 -0.00037035035 0.0016268529 -0.0016058063 0.0007101325 0.0011797452 -0.0007495665 -0.0018703238 0.00070422795 -0.0011873196 0.0020086986 0.001850831 0.0002854725 -0.00038225483 4.5580215e-05 0.0016194265 0.002035636 0.0019456502
失败 -0.00010469845 0.0018940887 -0.0014412092 -0.0015371823 -0.002002583 7.790726e-05 0.0013241825 -0.002197846 0.0010830197 -0.0009955813 6.11623e-05 -0.0019960196 0.000947189 -0.0004830366 0.00066625135 0.0012426121 0.0007761008 -0.001925519 0.00069666177 0.001290112 0.0017135118 -0.00070171955 0.001374578 0.0014707922 -0.00095235504 -0.00021276725 -0.0020524967 0.0006933951 0.0019138025 0.0020904772 0.001716939 0.0020772342 -0.0004435291 0.0012963235 0.0013704648 -0.0010951841 -0.0008804629 -0.0011298492 0.0015831956 0.00013049023 0.0011991917 -0.001930785 0.0005251944 0.00042144445 0.00033100168 0.0015065991 0.0015152895 -0.0015914709 -0.0020864897 0.00048493216 -0.0008400497 0.00034078298 -0.0011634268 -0.001877061 -0.0019529718 0.0005870704 -0.00016425888 0.0001280495 0.0009760479 -0.0019221449 0.002055323 -0.0018515786 0.0016188 0.0012139879 -0.0016749792 -0.0013210633 0.0013672275 -0.00052119314 -0.0009498277 0.0014042569 0.0019120304 -0.0017840737 -0.0011851658 0.00080943655 0.0008131318 -0.0015941504 -0.0021750864 8.493621e-05 0.000755314 0.001891147 0.0011169906 -0.00012023091 -9.828805e-05 -0.0019534929 -0.0018863318 0.0008758425 -0.0020348884 -0.00056860165 -0.0010592985 0.0019587935 -0.0005850341 0.0013601249 0.00013475717 -0.0013302427 0.00069354504 0.001366749 0.002158897 -0.0019397275 0.0008829857 0.00059346977 0.000410519 0.0004272394 0.000828151 -0.002013366 0.00073824154 -0.00071093865 -0.0016722282 -0.0008715734 -0.0022647171 0.00025015345 -0.0015725684 0.00087958324 0.0010158846 0.000737691 0.0019373932 -0.00092453737 0.00077194365 0.0011459242 -0.00055996893 -0.0019385776 0.0007457327 -0.0013754552 -0.00014253588 0.001622829 0.0018179961 -0.00017170279 -0.0010102118 0.0019537893 0.002084726 0.00030815133 -0.0012599585 -0.00035702088 -0.0020315612 -0.0019112985 -0.0010246554 -0.00042450937 -0.0015244025 -1.8947043e-05 -0.0007660366 -0.0009692956 -0.002184862 0.00011335151 -0.0012455124 -0.00069290976 -0.0017167646 -0.0020741026 0.0016148319 -0.0009271341 0.00080392486 0.0018503788 0.0013143887 -0.0002895699 -0.00033594103 -0.0007113215 -0.0008471632 0.00037990639 0.0020452891 -0.0013059523 -5.709144e-05 0.00089232 -0.00060120027 0.0010957287 0.0005593095 0.0010991276 -0.0011521706 0.0012281614 -0.00014651266 0.0012602747 -0.002094762 -0.0007493738 -0.0020123033 0.0011447262 -0.00038413456 -1.739654e-05 0.0018377507 0.0012897423 5.6468125e-05 -0.0018963862 0.002070906 -0.0020974593 0.0023176007 -0.0014240993 0.0013426751 0.00080390705 0.0017419673 -0.0012789728 3.0401556e-05 -0.0017343465 0.00090431963 -0.00085691566 0.0008406645 -0.0018087933 0.0013685101 -0.001498929 0.000107435306 -0.0011930679 -0.001095179 0.000112999114 -0.000391001 -0.00022853106 -0.0010952753 0.0020449022 0.0013222508 0.00093980646 -0.00048210492 -0.0012150948 -0.00045572218 0.0019081587 0.0009896319 -0.00016389406 -0.00031203128 0.0010940498 -0.0015167886 -0.0013680363 -0.00063784537 -0.0006157733 -0.00042429846 0.0005911378 0.0005536911 0.0011604636 -0.0021158687 -0.0015372671 -0.0010420526 -0.001829474 0.0005607776
如何 -0.00015321789 -0.001187782 -0.000587974 -0.00070959324 7.133378e-05 7.2536546e-05 0.0010056352 0.00056195835 -0.0017929126 -8.873177e-05 0.0012341449 0.00013853337 -0.0022647255 0.001011757 0.0017880677 0.0013177049 -0.0017733945 -0.00042763702 0.0004020554 0.0011779773 -0.00041141702 -0.0012378236 -0.0005944834 -0.0016185798 0.0007023101 -0.000117563264 0.0020321633 -0.0019611951 0.0020833767 -0.00063329324 0.0020838853 -0.0018950012 0.0022417803 -0.00031523994 -0.0018803529 -0.0022127111 -0.0021569296 0.00017209834 0.0013617626 -0.0006964597 0.0020884015 -0.0016749838 0.0006770263 -0.0007958049 0.0010167335 4.0128663e-05 0.0008204156 -0.0011801234 -0.00065725116 -0.0020596243 -0.0019890305 -0.001980796 -0.00029777325 -0.0013764742 0.0010965286 0.0019254889 0.0020556182 -0.00039159486 0.0016966924 0.0017194091 0.0010957931 0.0006853557 -0.0007890755 -0.0017800101 0.002206087 0.0019442643 0.0008195448 -0.0015346002 -0.00080208626 -0.0007990278 -0.00031315102 -0.0003489756 -0.00026419043 0.0006394954 -0.0014895544 -0.0020535216 -0.0008555408 -0.0018498559 0.0011864041 -0.00061729527 0.0015435705 -0.0016353454 -0.0003243488 -0.001155285 -0.0011158535 -0.0011642295 -0.0007424713 0.0010076103 -0.00049178884 -0.0002521251 0.0017062732 -0.002086601 0.0020636346 -0.0019327225 -0.0021203307 -0.0020444207 0.0011920396 -0.00045522407 0.00076661067 0.0019523712 0.00054581655 0.001633106 -0.0018278722 -0.00021355363 0.0017669406 0.0016302307 -6.3500156e-05 0.00223927 -0.0009407008 -0.0015791018 0.0010837328 0.002235892 9.4451934e-05 0.00030943437 -0.00079131976 -0.0011828948 0.0022671018 -0.00057202956 0.0015219881 -0.0014304471 -0.0013531783 -0.00104476 -0.0021870378 -0.0021287694 0.0023370339 -0.0007577846 -0.000494797 0.0020435299 0.0016878042 -0.000841824 -0.00208647 0.000740579 -0.0017698348 0.0018292955 0.0016704705 0.0020465609 0.000576797 -1.7306416e-05 -0.0015931058 -0.0016710415 0.0018385588 0.0012185237 -0.0012388089 0.00048826137 0.00074388395 0.00033698246 0.00041931224 -0.00017563558 -0.0022019967 -0.00019571264 -0.00042638916 0.00015841183 -0.0008726121 0.0020876 0.0011071627 -0.00028492566 -0.0014477108 0.0003153411 -0.0010483589 -0.0023055554 0.0021433139 -0.0010300617 -0.0006618968 -0.00040373922 0.0018230864 0.0011132817 -0.0010779867 -0.0021258274 -0.0013608468 -0.00084975915 0.00010120259 0.0010752534 0.0006385786 0.0005813452 0.00034990654 0.00214317 -0.00013783426 -0.00048551706 1.6681315e-05 -0.0016452789 -0.001274377 -0.00058865186 -0.0012270461 0.00082057953 -0.0006692793 0.0011526268 0.0014454842 0.0020276404 0.0008564594 -0.0020774086 -0.00044626475 0.0012777603 -0.00059519097 -0.0013126836 0.0009269047 -0.0014991111 0.0015595651 0.0006079302 -0.0007794317 -0.00073626696 -0.0006643592 0.0006978499 -0.0010828036 -0.0014033312 0.0019620499 -0.00032735162 0.0020935321 -0.002214811 0.0022895306 -0.0020784824 -0.0017641096 0.00026625503 0.0006598116 0.0018064128 -0.002211215 0.00013775942 0.0016552586 -0.002250893 -0.0018293248 0.0014068985 0.0017403121 -0.00035447854 0.0015924416 -0.00022619318 -0.0019957598
没 0.0018538176 0.00060587743 -0.0018624782 -0.00016624026 -0.0010965966 0.00016603502 -0.00149182 0.0011628333 0.00013721212 -0.0009812558 -0.0012785331 -0.0011767038 0.00072489196 -0.0017627542 -0.0005354251 -0.0018189881 -0.0022819696 -1.9735948e-05 -0.0014481331 0.00039185063 0.0014699559 -0.00036951035 -0.002252707 0.00050082203 0.00036422955 -0.00097070343 0.00038997887 -0.001415089 0.0019110997 -0.0006455495 0.001691467 0.0020693683 0.0012195893 -0.0008676833 -0.00024325223 -0.0004157134 -0.00072536414 -0.0015884058 -0.0019201464 0.0009202026 0.0008373968 -0.0014797582 -0.0001930689 0.0011124441 -0.0019739752 -0.0003489187 -0.00180462 0.001881442 0.0008345451 -0.0004433682 -0.0012406538 -0.00030513937 -0.0012746999 -0.00074791565 0.001603202 0.00081520854 -0.0016890231 -0.00044927522 0.0014923294 0.00063558796 0.00076420075 0.0018501478 -0.0019955547 0.0017687243 -0.0010351174 -0.00063139806 0.00096901675 0.0018186844 0.0017399832 0.0013256958 -0.0020281745 -0.0016665572 0.002213234 -0.00033584854 0.0017754106 0.0018460903 -0.0017542584 -0.0010874703 -0.00018855407 0.0015571157 0.0011997253 -0.0021138994 0.00073258416 -0.00204953 -0.0008637189 0.0012365566 0.001228928 0.001789148 -0.0010158599 -0.0015163542 -0.0017111918 0.00041313644 -0.0010774244 0.001771691 0.0008806187 -0.002148366 -0.0018079875 -0.001835514 0.00042472596 -0.0011578151 6.9172245e-05 -0.00091271626 -4.8882994e-06 0.0019814093 0.0020495022 0.0021142873 -0.0012642664 0.00032311064 0.00014450429 -0.0014137914 -0.0021492376 0.0017678445 -0.002038537 -0.0021777113 0.0017966155 0.00014064374 0.001121166 -0.0009904727 -0.001597928 0.00014898744 -0.0013347369 0.0022602312 0.0014608857 -0.0022433691 0.0022630899 0.0019271522 0.0007661737 0.00027164648 0.00093584164 0.0019432117 4.8371418e-05 -0.0015632847 0.0008330671 -0.0014494355 6.701053e-05 -0.000163695 -0.0014857915 0.0016499121 0.0009241753 0.0013660186 0.0012332259 6.841229e-05 0.001406646 0.0020668285 0.00034235333 0.0005533705 0.001302015 -0.00042208194 -0.0021782306 -0.00190938 0.00014591869 -0.00021539142 -0.0006696175 -0.0009048606 0.0013380512 -0.0008220653 1.6899645e-05 -0.002043584 -0.0009804495 -0.0014472061 0.0011299942 -0.00018631009 0.0014389553 0.0016595607 -0.00029652694 -0.00045375142 -0.00041657148 -0.00053320796 0.0011779055 0.0016789802 0.0021834834 0.0020959156 0.0013975868 -0.0007422443 -0.0006562115 -0.0011930956 -0.0021134727 0.00016577601 -0.0018882279 0.0009334026 0.0023354357 -0.0017360282 0.0020852005 -0.0010487472 -0.0013560219 0.0006420263 -0.0016105043 0.0009945866 0.001577645 -0.0020887211 -0.0015949708 0.00010377667 0.0019047355 -0.0014387283 -0.0011440316 -0.002094254 0.00079007907 -0.0001506368 -0.0016649864 -0.0021764264 -0.00072562526 0.0019355511 -0.0020167432 0.0008512296 -0.0011457831 0.0012596617 -0.0010388781 -0.00020744228 -0.00024617213 -0.0017733914 -0.0013864728 0.0013639311 -0.0016671418 -0.0020906345 0.000602189 0.0014210829 0.0018510646 0.0018747869 0.0018885947 0.0010965996 -0.0010294371 -0.0014271263 -0.0003232356 -0.0022840658 -0.0015444484
贷款 -0.0008105054 -0.0007343832 0.0015649322 0.0015462361 -0.00050149346 0.0015820977 0.0013712978 -0.0010694367 -0.0016905922 -0.0011222159 0.001857839 0.001974523 -0.0013012307 -0.0019848954 -0.000993523 0.001958262 0.0014586371 4.6292378e-05 -0.0019548708 -0.00052058534 0.0005660122 0.0008587511 -0.0019315493 0.0013662744 0.002279525 -0.00055348483 0.0015909869 -0.0012416048 0.0010144272 0.00051734655 -1.2646782e-05 0.0017158703 -0.00026810946 -0.00079346553 -0.0019234744 0.0003538561 -8.907028e-05 -0.0016735811 0.0012227388 -0.0005078813 -0.002118892 -0.0008415361 0.00124469 -0.00022137897 -0.0011537774 -0.0002791971 0.0015451208 -0.00063307077 -0.0013847216 0.00061495707 -0.0017055948 -0.0020996088 0.00092260016 0.0014765909 0.0020972553 0.0018604428 0.0006253967 -0.0014408779 -0.0009910995 -0.00041471783 -0.0012332074 0.00093816343 0.002229563 0.000658468 -0.00028069166 0.001981391 -0.00090043864 0.0016514609 -0.002107422 -0.0006161225 0.00075566286 -0.0015789347 0.00088557333 -0.0014831562 -0.0016621322 -0.0013632361 -0.0010802611 0.0016536788 0.0007552906 -0.0007252673 0.0012240828 -0.00019090997 -0.0018963586 0.0022989034 0.0005776548 0.0021959823 0.00043460497 -0.00036907312 -0.0018801375 -0.0021837195 -0.0016469636 0.0006852026 -0.0005222517 0.0013260214 -0.0017070775 0.0020644336 -0.0013026858 0.00067100744 -0.0013403469 -0.00087613787 0.0006276832 0.0012292811 -0.0019952983 0.001849038 0.002163946 -0.00027576607 -0.001115791 -0.0018042113 -0.0017779595 -0.0006313463 -0.0020467374 -0.0018579859 0.00035569505 -0.0015239386 -0.0016887484 -0.0005668199 0.0012992505 -0.0022646808 -0.0010295331 0.002007193 -0.0018285558 0.0017652774 5.9689955e-06 -0.0004783657 -0.0008311374 0.0011209459 -0.0007518471 -0.001362968 -0.0020060046 0.0001577572 0.0015012864 -0.0019914706 0.0015702676 0.0016650745 0.0016433256 0.0008599785 0.0011077607 -0.0011830278 0.0014399373 -0.0008231772 0.0006281898 -0.0014401797 0.0006584202 0.0007616258 0.00037467314 0.0019658136 -0.00041756648 8.4561645e-05 0.001996809 -0.00040076402 0.0009850848 -0.0012217583 -0.0003798589 0.0018243826 0.0016204298 -0.0007093774 -0.0012500176 -0.0010998611 -0.00042444348 -0.00084755913 -0.001229961 0.0017615983 -0.0019491492 0.0003819688 -0.0005694792 -0.00042912387 -0.002074138 0.0011520253 -0.0021901717 -4.0379917e-05 3.8273323e-05 -0.0017517073 -0.0003282635 -0.00019443968 -0.0006368808 -0.00039070175 -0.0009492482 -0.00147787 -0.002018835 -0.0012954462 0.0018661144 0.001260107 -0.0013060885 0.0004083852 0.0007645648 0.00024009685 0.0017592905 -0.0016421337 0.0002515677 0.0018616215 -0.0011989162 -0.0001299996 0.0021037443 0.00027478623 -0.002353917 -0.0014074207 0.0015240291 -0.0013595539 -0.0010658895 -0.0009555239 0.00096380536 -0.0020188722 -0.0011712154 -0.0009047535 -0.0010630164 0.0002330846 1.5674443e-05 0.0006289968 0.00048609686 -0.0015994277 0.000988005 0.00079926755 0.00060738815 -0.001282357 -0.0011628765 0.00045082252 5.624661e-06 -0.0012181117 0.0018176374 0.0014403946 -0.0005323397 0.0005181214 0.00029433408 -7.287677e-05 0.0003805155
扣款 -0.0016642986 0.00022085037 0.0010201443 -0.001085993 0.0012114076 0.00030063256 -0.00026814974 -0.00010112812 -0.0016516297 -0.0006782624 -0.001813423 0.0020429434 0.0005470505 0.0014164814 -0.0015630188 0.00016691508 -0.0010530683 0.00030355586 0.0010216966 -0.0013518945 6.912903e-05 -2.8131806e-05 0.00042769982 -0.0015250475 -0.00061801705 -0.00018653636 0.0021468021 -0.0016393547 0.0004982327 -0.0017025816 -0.00012237755 -0.0017783866 0.00092479406 -0.0010738481 0.0011479805 -0.0008596994 -0.0021232886 -0.0020667748 0.0010923841 -0.0009945383 0.0005794853 -0.001038052 -0.00016202962 0.00047580685 0.00055029197 0.00065660104 -0.0009560052 0.0020348898 0.001882912 -0.0004089032 0.00021259686 0.0011653409 -0.0005941826 0.0010265235 0.0018112347 -0.0017216068 0.0013117143 -0.001643793 0.0022901618 -0.00019934877 -4.8745886e-05 0.0017453895 0.0008185842 -0.0009366314 0.0010716051 0.0013505039 -0.0008910669 0.00059346977 -0.0022681907 -0.0010080736 0.0021910735 -0.0009203146 0.00015685766 -0.0012274347 0.002038915 0.00077392464 -0.0005417792 -0.000699785 -0.0021152592 0.0009994243 -0.0020969023 0.0022393786 -0.00042933263 -0.0011740796 0.0021818643 0.0018376413 -0.0022246076 -0.00019134485 -0.00036625462 0.002009252 0.0010483268 0.00051470665 0.0007406632 0.0008611783 -0.0021644009 -0.0021059331 -0.0011655575 0.0014651037 0.0010962193 5.6702993e-06 -4.9584796e-05 2.4224202e-05 -0.0019740437 0.0005030581 0.00023009178 0.00186611 -0.0010269192 -0.00036324907 0.0020771977 -0.00088212424 0.0016537141 0.0019234153 0.0015594743 0.0010207397 0.000348234 0.0007621623 0.0012206659 5.7127356e-05 0.0004986941 0.00013341886 0.00088319706 0.0018402819 0.0015565874 -0.0014775518 0.0012041043 0.0016598668 -3.7476264e-05 -0.00031940802 0.0013719839 -0.0019072689 -0.002088755 -0.00097444427 -0.001764784 0.0012706047 -0.00044227755 0.0021886246 0.00014354986 -0.0014289139 -0.00076638884 -0.0014023446 0.00010361622 -0.0019208159 -0.0005896442 0.0011240235 0.0011812429 0.0015877832 -0.0017945502 0.00058337214 0.0003910192 0.002267626 -0.0018215447 -0.0012317974 0.0021351457 0.0011766399 0.0008380711 -0.0016197152 -0.0012308968 -0.0002129695 0.0020538527 -0.0011085615 0.0012000246 -0.0010736877 -0.001430067 0.0009400565 -0.0018579465 -0.00043322454 -6.661833e-05 0.0016221307 -0.0008431015 0.001752927 0.0022414927 -0.00028215203 0.0007942104 0.00053618784 0.0019984052 0.0020973948 0.00097639667 -0.0005898184 -0.0015759403 -0.000120985904 0.001921447 0.0009434514 0.0022157307 -0.001864861 -0.0010369425 -0.00065704493 0.0014485923 0.00026573928 0.0001312573 0.0017147637 0.0006895514 -0.0013140611 -0.0013748863 0.0008398453 -0.0016945583 0.00044825734 0.001017412 -0.0015041862 0.0005092167 -0.00040587425 0.00087975146 0.0013780023 -0.0016548311 0.0009748542 -0.0020420214 0.002027061 0.0018178291 0.00135708 0.0017821055 -0.0019712877 -0.0016488893 -6.0278933e-05 -0.0017697203 -0.0015239543 -0.0017264984 -0.001020808 0.0019973747 -0.0007824485 -0.0019002786 -0.00049878337 -0.0018410074 -0.0003832407 0.0016937006 -0.0016210834 -0.0005996718
